{"learner":{"attributes":{"scikit_learn":"{\"_estimator_type\": \"classifier\"}"},"feature_names":["amount","hour","merchant_category_electronics","merchant_category_fuel","merchant_category_grocery","merchant_category_online_shop","merchant_category_restaurant","city_Gdansk","city_Krakow","city_London","city_Warsaw","city_Wroclaw"],"feature_types":["float","float","float","float","float","float","float","float","float","float","float","float"],"gradient_booster":{"model":{"cats":{"enc":[],"feature_segments":[],"sorted_idx":[]},"gbtree_model_param":{"num_parallel_tree":"1","num_trees":"75"},"iteration_indptr":[0,1,2,3,4,5,6,7,8,9,10,11,12,13,14,15,16,17,18,19,20,21,22,23,24,25,26,27,28,29,30,31,32,33,34,35,36,37,38,39,40,41,42,43,44,45,46,47,48,49,50,51,52,53,54,55,56,57,58,59,60,61,62,63,64,65,66,67,68,69,70,71,72,73,74,75],"tree_info":[0,0,0,0,0,0,0,0,0,0,0,0,0,0,0,0,0,0,0,0,0,0,0,0,0,0,0,0,0,0,0,0,0,0,0,0,0,0,0,0,0,0,0,0,0,0,0,0,0,0,0,0,0,0,0,0,0,0,0,0,0,0,0,0,0,0,0,0,0,0,0,0,0,0,0],"trees":[{"base_weights":[5.218992E-3,-1.2981775E0,1.1524134E0,-1.5310959E0,9.152707E-1,1.5172627E0,1.978216E-1,1.8151815E0,-1.5835822E0,1.378545E0,6.133547E-1,8.9839035E-1,1.6954079E0,-1.0584561E-1,1.6229577E0,9.202773E-2,1.1515151E0,-1.2697113E0,-1.882723E0,1.1287606E0,8.163522E-2,2.4397825E-1,1.001642E0,6.033163E-1,9.976247E-2,1.9903051E0,1.3899904E0,2.95858E-1,-3.6478356E-1,9.018036E-1,1.8097252E0,-5E-2,7.931035E-2,-1.5657014E0,-6.970075E-1,-1.8950915E0,-1.3035294E0,5.416667E-1,1.2970451E0,-1.9569471E-2,1.2416357E0,1.1035653E0,-9.090909E-2,-1.2382739E-1,1.1392967E0,1.7750611E0,9.980915E-2,1.1262717E0,1.8113497E0,1.658031E-1,1.2267658E0,-4.3962052E-1,4.1333333E-1,9.7330594E-1,-7.5E-2,1.611479E0,9.919193E-2,-1.6341118E0,-8.5505927E-1,-1.2634472E0,1.4811463E0,-1.7412463E0,-1.9271677E0,-1.484536E0,5.365854E-1,-5.3521127E-1,1.136E0,1.4306049E0,3.529412E-1,8.734178E-2,-1.6684265E-1,1.3282443E0,-6.363636E-2,9.2156865E-2,1.0296296E0,-5.142306E-1,1.2348993E0,1.2143064E0,-6.486486E-1,1.4556212E0,9.836066E-2,8.056395E-1,1.415546E0,1.6034483E0,9.875862E-2,-1.942605E-1,4.834308E-1,-6.363636E-2,1.2693032E0,-6.706731E-1,-1.7340241E-1,2.3938224E-1,1.4418604E0,1.0727273E0,3.9215688E-2,1.6632065E0,4.1860464E-1,-8.36346E-2,-6.188605E-2,-9.871383E-2,-2.050633E-2,-7.164065E-2,-3.518052E-2,-4.5355193E-2,9.2850916E-2,-8.823886E-2,-3.0666668E-2,-9.881348E-2,-9.3549244E-2,-9.7740114E-2,-5.3488374E-2,5.294118E-2,-6.363636E-2,-8.974359E-2,4.4444446E-2,7.8313254E-2,1.3043478E-2,7.5E-2,4.2857144E-2,7.54386E-2,-8.75E-2,-9.48718E-2,-5.727377E-4,-5.555556E-2,6.964981E-2,-8.947369E-2,5.6405354E-2,-4.7943357E-2,2.996633E-2,-1.3450292E-2,9.114219E-2,4.97006E-2,7.079401E-2,-9.466667E-2,2.9870128E-2,-5E-2,7.69697E-2,6.5043695E-2,2.3504635E-2,8.359058E-2,6.56962E-2,8.210046E-2,4.6268657E-2,-2.6546149E-2,1.3464053E-2,4.2937856E-2,1.4243324E-2,5.591398E-2,7.91411E-2,-9.7894736E-2,-2.9598981E-2,1.9504644E-2,-1.6733244E-2,6.0869563E-2,1.3953488E-3,-6.0000002E-2,8.5E-2,5.939086E-2,4E-3,-7.777778E-2,4.0540542E-2,9.428572E-2,7.988506E-2,6.774194E-2,-7.5E-2],"categories":[],"categories_nodes":[],"categories_segments":[],"categories_sizes":[],"default_left":[0,0,0,0,0,0,0,0,0,0,0,0,0,0,0,0,0,0,0,0,0,0,0,0,0,0,0,0,0,0,0,0,0,0,0,0,0,0,0,0,0,0,0,0,0,0,0,0,0,0,0,0,0,0,0,0,0,0,0,0,0,0,0,0,0,0,0,0,0,0,0,0,0,0,0,0,0,0,0,0,0,0,0,0,0,0,0,0,0,0,0,0,0,0,0,0,0,0,0,0,0,0,0,0,0,0,0,0,0,0,0,0,0,0,0,0,0,0,0,0,0,0,0,0,0,0,0,0,0,0,0,0,0,0,0,0,0,0,0,0,0,0,0,0,0,0,0,0,0,0,0,0,0,0,0,0,0,0,0,0,0,0,0,0,0],"id":0,"left_children":[1,3,5,7,9,11,13,15,17,19,21,23,25,27,29,-1,31,33,35,37,-1,39,41,43,-1,45,47,49,51,53,55,-1,-1,57,59,61,63,65,67,69,71,73,-1,75,77,79,-1,81,83,85,87,89,91,93,-1,95,-1,97,99,101,103,105,107,109,111,113,115,117,119,-1,121,123,-1,-1,125,127,129,131,133,135,-1,137,139,141,-1,143,145,-1,147,149,151,153,155,157,159,161,163,-1,-1,-1,-1,-1,-1,-1,-1,-1,-1,-1,-1,-1,-1,-1,-1,-1,-1,-1,-1,-1,-1,-1,-1,-1,-1,-1,-1,-1,-1,-1,-1,-1,-1,-1,-1,-1,-1,-1,-1,-1,-1,-1,-1,-1,-1,-1,-1,-1,-1,-1,-1,-1,-1,-1,-1,-1,-1,-1,-1,-1,-1,-1,-1,-1,-1,-1,-1],"loss_changes":[3.4524926E4,5.5740117E3,4.276866E3,1.7206172E3,1.4318549E2,9.780117E2,1.4702815E3,4.3170166E-1,9.017617E2,2.3900269E1,8.9431595E1,6.422217E2,6.184922E2,2.914836E2,7.8743164E1,0E0,9.301985E0,7.960088E2,3.283789E1,1.9822906E1,0E0,8.462214E1,8.9521576E1,6.112452E2,0E0,8.935547E-1,3.7485205E2,1.3279102E2,9.939432E1,2.288385E1,1.3129639E1,0E0,0E0,1.4927393E2,1.980875E3,2.0447266E1,3.6185593E1,3.1329174E1,1.976477E1,6.675826E1,1.6335213E1,1.4205719E1,0E0,3.5404816E2,1.218584E2,3.4126892E0,0E0,1.9259253E2,4.1245605E1,1.1045727E2,1.5915787E1,9.551694E1,2.6491856E1,1.1264671E1,0E0,1.3279846E1,0E0,4.1146484E1,1.357603E2,1.197417E2,2.9926422E2,2.127832E1,7.286133E0,1.6828827E1,1.1032738E1,3.3436863E1,1.1358223E1,4.305542E0,5.4291534E1,0E0,6.364348E1,1.1893677E1,0E0,0E0,7.697562E1,2.571749E2,1.3223805E2,3.7081177E1,5.85159E1,1.0230804E1,0E0,1.6439954E2,2.6365234E1,1.3645874E1,0E0,7.08368E1,3.798741E1,0E0,4.515503E0,8.311917E1,6.5898186E1,2.6749828E1,1.6702324E1,1.2472809E1,1.6950363E1,1.4642334E-1,2.1342087E1,0E0,0E0,0E0,0E0,0E0,0E0,0E0,0E0,0E0,0E0,0E0,0E0,0E0,0E0,0E0,0E0,0E0,0E0,0E0,0E0,0E0,0E0,0E0,0E0,0E0,0E0,0E0,0E0,0E0,0E0,0E0,0E0,0E0,0E0,0E0,0E0,0E0,0E0,0E0,0E0,0E0,0E0,0E0,0E0,0E0,0E0,0E0,0E0,0E0,0E0,0E0,0E0,0E0,0E0,0E0,0E0,0E0,0E0,0E0,0E0,0E0,0E0,0E0,0E0,0E0,0E0,0E0,0E0],"parents":[2147483647,0,0,1,1,2,2,3,3,4,4,5,5,6,6,7,7,8,8,9,9,10,10,11,11,12,12,13,13,14,14,16,16,17,17,18,18,19,19,21,21,22,22,23,23,25,25,26,26,27,27,28,28,29,29,30,30,33,33,34,34,35,35,36,36,37,37,38,38,39,39,40,40,41,41,43,43,44,44,45,45,47,47,48,48,49,49,50,50,51,51,52,52,53,53,55,55,57,57,58,58,59,59,60,60,61,61,62,62,63,63,64,64,65,65,66,66,67,67,68,68,70,70,71,71,74,74,75,75,76,76,77,77,78,78,79,79,81,81,82,82,83,83,85,85,86,86,88,88,89,89,90,90,91,91,92,92,93,93,94,94,95,95,96,96],"right_children":[2,4,6,8,10,12,14,16,18,20,22,24,26,28,30,-1,32,34,36,38,-1,40,42,44,-1,46,48,50,52,54,56,-1,-1,58,60,62,64,66,68,70,72,74,-1,76,78,80,-1,82,84,86,88,90,92,94,-1,96,-1,98,100,102,104,106,108,110,112,114,116,118,120,-1,122,124,-1,-1,126,128,130,132,134,136,-1,138,140,142,-1,144,146,-1,148,150,152,154,156,158,160,162,164,-1,-1,-1,-1,-1,-1,-1,-1,-1,-1,-1,-1,-1,-1,-1,-1,-1,-1,-1,-1,-1,-1,-1,-1,-1,-1,-1,-1,-1,-1,-1,-1,-1,-1,-1,-1,-1,-1,-1,-1,-1,-1,-1,-1,-1,-1,-1,-1,-1,-1,-1,-1,-1,-1,-1,-1,-1,-1,-1,-1,-1,-1,-1,-1,-1,-1,-1,-1],"split_conditions":[4.9634E2,1E0,1E0,1E0,6E0,8.4682E2,2.23758E3,1E0,1E0,1E0,1E0,1E0,1E0,8E0,2.354E3,9.202773E-2,1.5E1,2.6474E2,4.6233E2,2E0,8.163522E-2,4.3575E2,4.3575E2,1E0,9.976247E-2,8.9931E2,1.71347E3,1E0,2.3E1,1E0,2.65987E3,-5E-2,7.931035E-2,1E0,1E0,4E0,1E0,2.7465E2,5E0,1E0,1E0,1E0,-9.090909E-2,1E0,1E0,1E0,9.980915E-2,1E0,1.98826E3,1E0,5.7712E2,1E0,1E0,1E0,-7.5E-2,1E0,9.919193E-2,2.2E1,8.025E1,1E0,2.8569E2,4.4818E2,1E0,1.2E1,1.8E1,1E0,1E0,1E0,1.4791E2,8.734178E-2,1.179E1,8E0,-6.363636E-2,9.2156865E-2,3.819E1,1E0,5.4224E2,1E0,7.5938E2,3E0,9.836066E-2,6E0,4E0,1E0,9.875862E-2,1.55941E3,2E0,-6.363636E-2,1.85013E3,6.3086E2,7.5938E2,6.1296E2,1.35362E3,1E0,1.3E1,2E0,3E0,-8.36346E-2,-6.188605E-2,-9.871383E-2,-2.050633E-2,-7.164065E-2,-3.518052E-2,-4.5355193E-2,9.2850916E-2,-8.823886E-2,-3.0666668E-2,-9.881348E-2,-9.3549244E-2,-9.7740114E-2,-5.3488374E-2,5.294118E-2,-6.363636E-2,-8.974359E-2,4.4444446E-2,7.8313254E-2,1.3043478E-2,7.5E-2,4.2857144E-2,7.54386E-2,-8.75E-2,-9.48718E-2,-5.727377E-4,-5.555556E-2,6.964981E-2,-8.947369E-2,5.6405354E-2,-4.7943357E-2,2.996633E-2,-1.3450292E-2,9.114219E-2,4.97006E-2,7.079401E-2,-9.466667E-2,2.9870128E-2,-5E-2,7.69697E-2,6.5043695E-2,2.3504635E-2,8.359058E-2,6.56962E-2,8.210046E-2,4.6268657E-2,-2.6546149E-2,1.3464053E-2,4.2937856E-2,1.4243324E-2,5.591398E-2,7.91411E-2,-9.7894736E-2,-2.9598981E-2,1.9504644E-2,-1.6733244E-2,6.0869563E-2,1.3953488E-3,-6.0000002E-2,8.5E-2,5.939086E-2,4E-3,-7.777778E-2,4.0540542E-2,9.428572E-2,7.988506E-2,6.774194E-2,-7.5E-2],"split_indices":[0,5,2,0,1,0,0,8,4,10,10,3,5,1,0,0,1,0,0,1,0,0,0,5,0,0,0,9,1,9,0,0,0,2,3,1,9,0,1,0,7,0,0,4,7,3,0,10,0,10,0,10,9,7,0,7,0,1,0,2,0,0,10,1,1,9,1,8,0,0,0,1,0,0,0,6,0,10,0,1,0,1,1,9,0,0,1,0,0,0,0,0,0,8,1,1,1,0,0,0,0,0,0,0,0,0,0,0,0,0,0,0,0,0,0,0,0,0,0,0,0,0,0,0,0,0,0,0,0,0,0,0,0,0,0,0,0,0,0,0,0,0,0,0,0,0,0,0,0,0,0,0,0,0,0,0,0,0,0,0,0,0,0,0,0],"split_type":[0,0,0,0,0,0,0,0,0,0,0,0,0,0,0,0,0,0,0,0,0,0,0,0,0,0,0,0,0,0,0,0,0,0,0,0,0,0,0,0,0,0,0,0,0,0,0,0,0,0,0,0,0,0,0,0,0,0,0,0,0,0,0,0,0,0,0,0,0,0,0,0,0,0,0,0,0,0,0,0,0,0,0,0,0,0,0,0,0,0,0,0,0,0,0,0,0,0,0,0,0,0,0,0,0,0,0,0,0,0,0,0,0,0,0,0,0,0,0,0,0,0,0,0,0,0,0,0,0,0,0,0,0,0,0,0,0,0,0,0,0,0,0,0,0,0,0,0,0,0,0,0,0,0,0,0,0,0,0,0,0,0,0,0,0],"sum_hessian":[2.308775E4,1.0808E4,1.227975E4,9.77925E3,1.02875E3,8.88375E3,3.396E3,1.505E2,9.62875E3,4.045E2,6.2425E2,1.987E3,6.89675E3,2.80025E3,5.9575E2,1.4325E2,7.25E0,4.70125E3,4.9275E3,2.0675E2,1.9775E2,3.2075E2,3.035E2,1.567E3,4.2E2,3.506E3,3.39075E3,1.0975E3,1.70275E3,1.2375E2,4.72E2,1E0,6.25E0,3.09825E3,1.603E3,4.82225E3,1.0525E2,4.7E1,1.5975E2,2.545E2,6.625E1,2.935E2,1E1,6.6525E2,9.0175E2,1.0125E2,3.40475E3,2.08775E3,1.303E3,9.64E2,1.335E2,1.55375E3,1.49E2,1.2075E2,3E0,2.255E2,2.465E2,2.825E3,2.7325E2,1.2725E3,3.305E2,8.415E2,3.98075E3,9.6E1,9.25E0,1.675E1,3.025E1,1.395E2,2.025E1,1.875E1,2.3575E2,6.45E1,1.75E0,2.45E1,2.69E2,5.1725E2,1.48E2,8.6575E2,3.6E1,4.125E1,6E1,9.92E2,1.09575E3,5.79E2,7.24E2,4.52E2,5.12E2,1.75E0,1.3175E2,8.31E2,7.2275E2,1.285E2,2.05E1,1.09E2,1.175E1,2.1575E2,9.75E0,2.5715E3,2.535E2,7.675E1,1.965E2,9.7575E2,2.9675E2,4.475E1,2.8575E2,8.2375E2,1.775E1,2.106E3,1.87475E3,4.325E1,5.275E1,7.5E0,1.75E0,8.75E0,8E0,1.975E1,1.05E1,1.23E2,1.65E1,1.325E1,7E0,1.85E1,2.1725E2,1.25E0,6.325E1,8.5E0,2.605E2,3.6975E2,1.475E2,4.175E1,1.0625E2,4.165E2,4.4925E2,1.775E1,1.825E1,1E0,4.025E1,3.995E2,5.925E2,3.0675E2,7.89E2,5.465E2,3.25E1,2.6175E2,1.9025E2,1.76E2,3.36E2,9.2E1,3.975E1,4.65E1,7.845E2,1.605E2,5.6225E2,2.2E1,1.065E2,1.5E0,1.9E1,9.75E1,1.15E1,3.5E0,8.25E0,4.275E1,1.73E2,6.75E0,3E0],"tree_param":{"num_deleted":"0","num_feature":"12","num_nodes":"165","size_leaf_vector":"1"}},{"base_weights":[-1.3130373E-2,-1.2624323E0,1.0749034E0,-1.4679822E0,8.07852E-1,1.4184096E0,1.621007E-1,1.7412964E0,-1.5186193E0,1.259676E0,4.8791784E-1,8.173184E-1,1.5929163E0,-1.6025065E-1,1.5918399E0,9.135916E-2,1.4043909E0,-1.2243361E0,-1.7967544E0,1.3367286E0,3.0725034E-2,-6.967527E-1,5.735562E-1,5.3379864E-1,9.5027074E-2,1.8884808E0,1.2815795E0,2.717176E-1,-3.461519E-1,9.313183E-1,1.7383039E0,-6.139896E-2,7.795118E-2,-1.5371609E0,-5.1456445E-1,-1.6329583E0,-1.8309164E0,1.1510922E0,1.5160214E0,6.5343773E-1,-8.5213326E-2,-1.1430962E0,8.9249015E-1,2.7673736E-1,9.456353E-1,-1.2100833E-1,1.0729685E0,1.537591E0,9.4944656E-2,1.0628004E0,1.8128105E0,-9.338555E-2,3.152184E-1,-4.176522E-1,3.7406436E-1,2.9620394E-1,1.2920524E0,1.5310835E0,9.4257735E-2,-1.6405044E0,-5.771676E-1,-1.1096634E0,1.8147099E0,-1.586555E0,-9.5005475E-2,-1.8829055E0,-1.7722287E0,1.1850017E0,-6.681795E-2,1.2372681E0,1.6529641E0,-7.468831E-2,1.1994714E0,-9.53078E-2,7.432358E-1,8.5738845E-2,-6.619801E-2,9.380735E-2,1.3527005E0,9.9540347E-1,-7.64924E-2,-5.583964E-1,1.0813859E0,8.92729E-1,1.2887907E0,9.459644E-1,9.3855925E-2,7.821375E-1,1.3275156E0,1.5480214E0,9.46334E-2,4.1279227E-1,-3.484104E-1,-7.1276224E-1,-1.2718955E-1,-2.104033E-1,7.486026E-1,-6.268705E-1,1.0164237E0,1.3875171E0,-6.8686135E-2,1.5678035E0,1.0056899E0,-8.430573E-2,-6.489248E-2,-9.404313E-2,-8.056252E-3,-6.920171E-2,-1.6139692E-2,7.523525E-2,9.389029E-2,-8.0411926E-2,-4.570049E-2,-9.4655864E-2,-8.314448E-2,-9.03232E-2,-7.879334E-2,9.1307394E-2,5.52772E-2,6.980502E-2,-7.815718E-2,3.6956925E-2,8.561703E-2,7.4143805E-2,-5.642382E-2,-5.50299E-2,5.7795513E-2,8.575805E-2,-2.0673298E-3,7.2592266E-2,-5.381873E-2,-1.29668955E-2,5.3901173E-2,-5.574257E-2,2.5444109E-2,-4.9145143E-2,9.039179E-2,3.681563E-2,6.2036283E-2,6.7670666E-2,4.113677E-2,5.4854985E-2,-6.66703E-2,5.6599498E-2,2.9605476E-2,7.893194E-2,6.0622007E-2,7.9582356E-2,-7.6554984E-2,3.63E-2,1.0255152E-2,3.583051E-2,-3.615064E-2,-2.2348689E-2,-5.19041E-2,-4.4107955E-2,1.5719073E-3,5.0277144E-2,-9.453327E-2,2.8039116E-2,7.448491E-2,4.7425393E-2,-9.154037E-2,5.741341E-2,3.4534525E-2,7.583427E-2,2.416945E-2,7.273482E-2,8.534698E-2,6.21106E-2,-5.3514965E-2],"categories":[],"categories_nodes":[],"categories_segments":[],"categories_sizes":[],"default_left":[0,0,0,0,0,0,0,0,0,0,0,0,0,0,0,0,0,0,0,0,0,0,0,0,0,0,0,0,0,0,0,0,0,0,0,0,0,0,0,0,0,0,0,0,0,0,0,0,0,0,0,0,0,0,0,0,0,0,0,0,0,0,0,0,0,0,0,0,0,0,0,0,0,0,0,0,0,0,0,0,0,0,0,0,0,0,0,0,0,0,0,0,0,0,0,0,0,0,0,0,0,0,0,0,0,0,0,0,0,0,0,0,0,0,0,0,0,0,0,0,0,0,0,0,0,0,0,0,0,0,0,0,0,0,0,0,0,0,0,0,0,0,0,0,0,0,0,0,0,0,0,0,0,0,0,0,0,0,0,0,0,0,0,0,0,0,0,0,0,0,0],"id":1,"left_children":[1,3,5,7,9,11,13,15,17,19,21,23,25,27,29,-1,31,33,35,37,39,41,43,45,-1,47,49,51,53,55,57,-1,-1,59,61,63,65,67,69,71,-1,73,75,77,79,81,83,85,-1,87,89,-1,91,93,95,97,99,101,-1,103,105,107,109,111,-1,113,115,117,-1,119,121,-1,123,-1,125,-1,-1,127,129,131,-1,133,135,137,139,141,-1,143,145,147,-1,149,151,153,155,157,159,161,163,165,-1,167,169,-1,-1,-1,-1,-1,-1,-1,-1,-1,-1,-1,-1,-1,-1,-1,-1,-1,-1,-1,-1,-1,-1,-1,-1,-1,-1,-1,-1,-1,-1,-1,-1,-1,-1,-1,-1,-1,-1,-1,-1,-1,-1,-1,-1,-1,-1,-1,-1,-1,-1,-1,-1,-1,-1,-1,-1,-1,-1,-1,-1,-1,-1,-1,-1,-1,-1,-1,-1],"loss_changes":[3.1042209E4,4.5250664E3,3.8271426E3,1.5742578E3,1.3827246E2,9.289844E2,1.5389792E3,1.7941284E0,7.7711914E2,3.7615723E1,5.7632294E1,6.124464E2,6.299668E2,2.1894762E2,5.7814575E1,0E0,1.6133774E1,1.0271094E3,2.4388672E1,1.0708984E1,2.7567787E1,2.8317669E1,5.7901215E1,5.595486E2,0E0,9.953125E0,3.874126E2,7.695414E1,9.829616E1,2.5656418E1,1.2380249E1,0E0,0E0,3.177876E2,1.967177E3,7.567383E0,8.990234E0,1.7440567E1,5.100464E0,2.3764858E1,0E0,4.529324E1,1.8672611E1,5.7811684E1,3.0263214E1,3.7738287E2,3.265692E1,1.9676529E1,0E0,1.7542749E2,1.7703125E1,0E0,5.2272926E1,1.4855792E2,3.794943E1,2.887024E1,2.0276825E1,2.5402527E0,0E0,4.3134277E1,1.6989111E2,2.4347815E2,2.8248901E0,9.224487E0,0E0,1.6293945E0,1.0025391E1,7.4564514E0,0E0,3.137967E1,5.3836975E0,0E0,1.1897064E1,0E0,8.499958E0,0E0,0E0,5.5437973E1,1.18461E1,2.4049347E1,0E0,3.1294955E2,2.8885703E2,2.5042023E1,1.0730286E1,1.55721245E1,0E0,7.613605E1,3.3367188E1,3.354547E1,0E0,4.5536354E1,4.19047E1,7.389484E1,1.0483766E2,1.4125137E2,1.3840439E1,3.8211296E1,2.4776268E-1,7.4638214E0,0E0,6.2771606E-1,9.543972E0,0E0,0E0,0E0,0E0,0E0,0E0,0E0,0E0,0E0,0E0,0E0,0E0,0E0,0E0,0E0,0E0,0E0,0E0,0E0,0E0,0E0,0E0,0E0,0E0,0E0,0E0,0E0,0E0,0E0,0E0,0E0,0E0,0E0,0E0,0E0,0E0,0E0,0E0,0E0,0E0,0E0,0E0,0E0,0E0,0E0,0E0,0E0,0E0,0E0,0E0,0E0,0E0,0E0,0E0,0E0,0E0,0E0,0E0,0E0,0E0,0E0,0E0,0E0,0E0,0E0,0E0,0E0,0E0],"parents":[2147483647,0,0,1,1,2,2,3,3,4,4,5,5,6,6,7,7,8,8,9,9,10,10,11,11,12,12,13,13,14,14,16,16,17,17,18,18,19,19,20,20,21,21,22,22,23,23,25,25,26,26,27,27,28,28,29,29,30,30,33,33,34,34,35,35,36,36,37,37,38,38,39,39,41,41,42,42,43,43,44,44,45,45,46,46,47,47,49,49,50,50,52,52,53,53,54,54,55,55,56,56,57,57,59,59,60,60,61,61,62,62,63,63,65,65,66,66,67,67,69,69,70,70,72,72,74,74,77,77,78,78,79,79,81,81,82,82,83,83,84,84,85,85,87,87,88,88,89,89,91,91,92,92,93,93,94,94,95,95,96,96,97,97,98,98,99,99,101,101,102,102],"right_children":[2,4,6,8,10,12,14,16,18,20,22,24,26,28,30,-1,32,34,36,38,40,42,44,46,-1,48,50,52,54,56,58,-1,-1,60,62,64,66,68,70,72,-1,74,76,78,80,82,84,86,-1,88,90,-1,92,94,96,98,100,102,-1,104,106,108,110,112,-1,114,116,118,-1,120,122,-1,124,-1,126,-1,-1,128,130,132,-1,134,136,138,140,142,-1,144,146,148,-1,150,152,154,156,158,160,162,164,166,-1,168,170,-1,-1,-1,-1,-1,-1,-1,-1,-1,-1,-1,-1,-1,-1,-1,-1,-1,-1,-1,-1,-1,-1,-1,-1,-1,-1,-1,-1,-1,-1,-1,-1,-1,-1,-1,-1,-1,-1,-1,-1,-1,-1,-1,-1,-1,-1,-1,-1,-1,-1,-1,-1,-1,-1,-1,-1,-1,-1,-1,-1,-1,-1,-1,-1,-1,-1,-1,-1],"split_conditions":[4.8772E2,1E0,1E0,1E0,6E0,8.2364E2,2.23758E3,1E0,1E0,1E0,8E0,1E0,1E0,6E0,2.354E3,9.135916E-2,8E0,2.8835E2,4E0,1E0,3E0,1E0,1E0,1E0,9.5027074E-2,8.732E2,1.85013E3,5.5865E2,1E0,1E0,2.65987E3,-6.139896E-2,7.795118E-2,1E0,1E0,1E0,1E0,4.4402E2,3E0,2.6723E2,-8.5213326E-2,1E0,4.883E1,4.6233E2,4.4818E2,1E0,1E0,1E0,9.4944656E-2,1E0,2.04343E3,-9.338555E-2,1E0,1E0,1.29267E3,1.6E1,2E1,1E0,9.4257735E-2,2.4623E2,7.837E1,1E0,3.1381E2,4.4818E2,-9.5005475E-2,4.3575E2,2.1E1,1E0,-6.681795E-2,3.8223E2,1.5608E2,-7.468831E-2,3.6786E2,-9.53078E-2,1.7605E2,8.5738845E-2,-6.619801E-2,1E0,1E0,3.501E1,-7.64924E-2,1E0,5.4224E2,1E0,7.5938E2,1E0,9.3855925E-2,6E0,4E0,2.2E1,9.46334E-2,2E0,7.7968E2,1.29267E3,1E1,1.1E1,2.3E1,2E0,1.9E1,1.5E1,-6.8686135E-2,1.8E1,1.8E1,-8.430573E-2,-6.489248E-2,-9.404313E-2,-8.056252E-3,-6.920171E-2,-1.6139692E-2,7.523525E-2,9.389029E-2,-8.0411926E-2,-4.570049E-2,-9.4655864E-2,-8.314448E-2,-9.03232E-2,-7.879334E-2,9.1307394E-2,5.52772E-2,6.980502E-2,-7.815718E-2,3.6956925E-2,8.561703E-2,7.4143805E-2,-5.642382E-2,-5.50299E-2,5.7795513E-2,8.575805E-2,-2.0673298E-3,7.2592266E-2,-5.381873E-2,-1.29668955E-2,5.3901173E-2,-5.574257E-2,2.5444109E-2,-4.9145143E-2,9.039179E-2,3.681563E-2,6.2036283E-2,6.7670666E-2,4.113677E-2,5.4854985E-2,-6.66703E-2,5.6599498E-2,2.9605476E-2,7.893194E-2,6.0622007E-2,7.9582356E-2,-7.6554984E-2,3.63E-2,1.0255152E-2,3.583051E-2,-3.615064E-2,-2.2348689E-2,-5.19041E-2,-4.4107955E-2,1.5719073E-3,5.0277144E-2,-9.453327E-2,2.8039116E-2,7.448491E-2,4.7425393E-2,-9.154037E-2,5.741341E-2,3.4534525E-2,7.583427E-2,2.416945E-2,7.273482E-2,8.534698E-2,6.21106E-2,-5.3514965E-2],"split_indices":[0,5,2,0,1,0,0,4,4,8,1,3,5,1,0,0,1,0,1,10,1,11,10,5,0,0,0,0,9,10,0,0,0,2,3,7,10,0,1,0,0,7,0,0,0,4,10,3,0,10,0,0,8,10,0,1,1,7,0,0,0,2,0,0,0,0,1,0,0,0,0,0,0,0,0,0,0,0,7,0,0,6,0,9,0,7,0,1,1,1,0,1,0,0,1,1,1,1,1,1,0,1,1,0,0,0,0,0,0,0,0,0,0,0,0,0,0,0,0,0,0,0,0,0,0,0,0,0,0,0,0,0,0,0,0,0,0,0,0,0,0,0,0,0,0,0,0,0,0,0,0,0,0,0,0,0,0,0,0,0,0,0,0,0,0,0,0,0,0,0,0],"split_type":[0,0,0,0,0,0,0,0,0,0,0,0,0,0,0,0,0,0,0,0,0,0,0,0,0,0,0,0,0,0,0,0,0,0,0,0,0,0,0,0,0,0,0,0,0,0,0,0,0,0,0,0,0,0,0,0,0,0,0,0,0,0,0,0,0,0,0,0,0,0,0,0,0,0,0,0,0,0,0,0,0,0,0,0,0,0,0,0,0,0,0,0,0,0,0,0,0,0,0,0,0,0,0,0,0,0,0,0,0,0,0,0,0,0,0,0,0,0,0,0,0,0,0,0,0,0,0,0,0,0,0,0,0,0,0,0,0,0,0,0,0,0,0,0,0,0,0,0,0,0,0,0,0,0,0,0,0,0,0,0,0,0,0,0,0,0,0,0,0,0,0],"sum_hessian":[2.2835201E4,1.062975E4,1.2205451E4,9.669952E3,9.5979785E2,8.867773E3,3.3376775E3,1.4968736E2,9.520265E3,3.9666882E2,5.63129E2,1.9964951E3,6.8712783E3,2.7243328E3,6.1334467E2,1.15754745E2,3.393263E1,4.6284717E3,4.891793E3,3.7318332E2,2.348549E1,3.748246E1,5.256466E2,1.5835215E3,4.129736E2,3.5223262E3,3.3489524E3,8.1954364E2,1.9047892E3,1.1265468E2,5.0068997E2,1.4975734E0,3.2435055E1,3.211757E3,1.4167148E3,8.526091E2,4.0391838E3,1.8699371E2,1.8618962E2,1.7741276E1,5.744215E0,2.9482845E1,7.9996133E0,2.9336456E2,2.3228203E2,7.154286E2,8.6809283E2,1.0579466E2,3.4165315E3,2.374183E3,9.747692E2,1.5495962E1,8.0404767E2,1.7331489E3,1.7164032E2,4.1467472E1,7.11872E1,2.1239966E2,2.882903E2,2.898973E3,3.12784E2,1.1288358E3,2.8787906E2,7.323424E2,1.2026666E2,2.1253442E3,1.9138396E3,1.8499542E2,1.9982991E0,6.464224E1,1.2154738E2,3.2450168E0,1.4496259E1,2.0983915E1,8.498931E0,5.999999E0,1.9996142E0,2.5166492E2,4.1699657E1,2.2829027E2,3.9917467E0,5.2499115E2,1.9043744E2,4.758407E2,3.9225217E2,3.9956535E1,6.583813E1,1.154299E3,1.2198843E3,2.3058531E2,7.441839E2,7.013113E2,1.0273638E2,8.589757E2,8.7417316E2,6.720502E1,1.044353E2,1.8231089E1,2.3236383E1,6.9188965E1,1.9982374E0,1.9667024E2,1.57294235E1,2.554964E3,3.4400888E2,7.481759E1,2.379664E2,8.364263E2,2.9240952E2,5.288593E1,2.3499313E2,7.0812067E2,2.4221731E1,2.0238058E3,1.0153843E2,1.622723E3,2.9111667E2,1.7974712E1,1.670207E2,6.1647232E1,2.9950073E0,8.23627E0,1.1331111E2,1.3246625E1,1.2496345E0,1.2494382E0,7.249493E0,1.8464762E1,2.3320015E2,4.0450924E1,1.2487353E0,1.3971259E1,2.1431902E2,3.450469E2,1.7994426E2,4.9480385E1,1.4095706E2,3.3043408E2,1.4540662E2,3.4281415E2,4.9438034E1,3.7958363E1,1.9981723E0,4.0454733E2,7.497516E2,3.793438E2,8.4054047E2,2.2784032E2,2.7449956E0,2.7862802E2,4.226833E2,2.649533E1,7.624105E1,4.7404868E2,3.8492706E2,1.5099054E2,7.231826E2,3.922258E1,2.7982437E1,8.472071E1,1.9714596E1,7.989201E0,1.0241888E1,1.4743567E1,8.492816E0,5.994712E1,9.241848E0,1.1480093E2,8.1869316E1,1.448118E1,1.2482439E0],"tree_param":{"num_deleted":"0","num_feature":"12","num_nodes":"171","size_leaf_vector":"1"}},{"base_weights":[-1.2327554E-3,-1.1275722E0,1.0561677E0,-1.3600874E0,9.1072917E-1,1.3972801E0,1.609769E-1,1.6310022E0,-1.4002289E0,5.267558E-1,1.2673165E0,1.212458E0,1.7785586E0,-2.1401533E-1,1.1908275E0,8.57554E-2,1.146344E0,-1.0903686E0,-1.7062206E0,1.020438E0,2.0469816E-1,1.573132E0,1.0653554E0,1.0574981E0,9.10785E-2,1.640343E0,9.078415E-2,2.5138828E-1,-4.253596E-1,6.358701E-1,1.6569594E0,6.903458E-2,-6.529888E-2,-1.4104788E0,-5.219856E-1,-1.7104726E0,-5.1113155E-2,1.0562876E0,-7.3669694E-2,-3.0992144E-1,7.40341E-1,1.1817036E0,8.368543E-2,1.1322869E0,-4.2269963E-1,4.7032353E-1,1.1765649E0,9.082671E-2,1.482819E0,5.299608E-1,-1.3067076E-1,-5.1070315E-1,3.59764E-1,9.967708E-1,3.9975774E-1,1.4383131E0,9.051009E-2,-1.6515244E0,-1.2785243E0,-9.86641E-1,1.4079201E0,-1.5611196E0,-1.7411022E0,-8.402637E-2,8.207681E-2,4.9819726E-1,1.1691377E0,-1.0916938E0,4.1465318E-1,8.465645E-1,-8.851786E-2,1.317689E0,-7.219892E-2,9.2262566E-2,1.0423329E0,-8.035164E-2,4.7763428E-1,-8.154215E-2,9.8315763E-1,1.1013687E0,9.209356E-2,1.2359749E0,1.6369784E0,2.6050904E-1,7.8765607E-1,-7.985265E-3,-1.1783086E0,-2.6686886E-1,-7.851139E-1,-9.557364E-1,9.2943734E-1,2.5106683E-1,1.1110206E0,2.0582601E-1,6.756084E-1,1.4865483E0,3.9258832E-1,-8.431379E-2,-4.782174E-2,-4.3531634E-2,-7.3648E-2,-6.463339E-2,-9.361765E-3,-9.1445215E-2,8.4728114E-2,-8.442192E-2,-6.0344767E-2,-8.752562E-2,-7.135971E-2,-8.318352E-2,4.385321E-2,8.052315E-2,5.3043514E-2,-7.879411E-2,3.0803218E-2,3.673209E-2,-9.118396E-2,-7.7326E-2,4.5925085E-2,8.019868E-2,4.7466125E-2,-8.6124875E-2,5.680297E-2,-7.150255E-2,5.6688823E-2,-3.7796844E-2,7.5606585E-2,6.4027175E-2,3.814931E-2,5.0890207E-2,9.102916E-2,-6.414654E-2,6.378264E-2,8.694052E-2,7.5194955E-2,1.5834667E-2,-8.275833E-2,-6.444051E-2,4.062218E-2,1.5555203E-2,-1.921252E-2,2.9683648E-2,-9.427818E-2,-1.8748352E-2,3.421778E-2,-3.435149E-2,-7.929225E-2,4.25233E-2,-9.192019E-2,2.8343683E-2,6.977432E-2,-8.917793E-2,6.508069E-2,6.1060335E-2,-3.0871038E-4,1.9633604E-2,-4.2049997E-2,3.681183E-2,-6.807097E-2,7.676381E-2,2.3698146E-2,-7.202266E-2,5.0634366E-2],"categories":[],"categories_nodes":[],"categories_segments":[],"categories_sizes":[],"default_left":[0,0,0,0,0,0,0,0,0,0,0,0,0,0,0,0,0,0,0,0,0,0,0,0,0,0,0,0,0,0,0,0,0,0,0,0,0,0,0,0,0,0,0,0,0,0,0,0,0,0,0,0,0,0,0,0,0,0,0,0,0,0,0,0,0,0,0,0,0,0,0,0,0,0,0,0,0,0,0,0,0,0,0,0,0,0,0,0,0,0,0,0,0,0,0,0,0,0,0,0,0,0,0,0,0,0,0,0,0,0,0,0,0,0,0,0,0,0,0,0,0,0,0,0,0,0,0,0,0,0,0,0,0,0,0,0,0,0,0,0,0,0,0,0,0,0,0,0,0,0,0,0,0,0,0,0,0,0,0,0,0,0,0],"id":2,"left_children":[1,3,5,7,9,11,13,15,17,19,21,23,25,27,29,-1,31,33,35,37,39,41,43,45,-1,47,-1,49,51,53,55,-1,-1,57,59,61,63,65,-1,67,69,71,-1,73,75,77,79,-1,81,83,85,87,89,91,93,95,-1,97,99,101,103,105,107,-1,-1,109,111,113,115,117,-1,119,-1,-1,121,-1,123,125,127,129,-1,131,133,135,137,139,141,143,145,147,149,151,153,155,157,159,161,-1,-1,-1,-1,-1,-1,-1,-1,-1,-1,-1,-1,-1,-1,-1,-1,-1,-1,-1,-1,-1,-1,-1,-1,-1,-1,-1,-1,-1,-1,-1,-1,-1,-1,-1,-1,-1,-1,-1,-1,-1,-1,-1,-1,-1,-1,-1,-1,-1,-1,-1,-1,-1,-1,-1,-1,-1,-1,-1,-1,-1,-1,-1,-1,-1,-1],"loss_changes":[2.7376656E4,5.27633E3,3.6201455E3,1.2018809E3,1.5545825E2,6.027949E2,1.2639985E3,3.4459534E0,9.329531E2,8.735916E1,3.4795593E1,5.4411426E2,1.1391602E1,2.3614531E2,2.2494263E2,0E0,1.4819347E1,8.9106396E2,3.480957E1,2.0974014E1,9.245445E1,7.185913E0,3.6208282E1,3.2203906E2,0E0,1.4051147E1,0E0,7.98979E1,1.10787994E2,3.372458E1,1.3284668E1,0E0,0E0,9.760205E1,1.5863909E3,1.990918E1,4.064709E1,1.2939285E1,0E0,9.75078E1,4.529847E1,2.0107025E1,0E0,2.0111084E1,1.8008965E1,2.207145E2,1.8986182E2,0E0,1.0305115E1,2.99281E1,4.0744896E1,9.943762E1,1.2261049E2,1.31566925E1,1.2900219E1,9.518066E0,0E0,2.5093506E1,1.5974194E2,3.4839905E2,3.2170105E2,3.636035E1,9.600586E0,0E0,0E0,3.246378E1,6.7890472E0,6.9346565E1,6.554857E1,2.8662086E1,0E0,3.6444244E0,0E0,0E0,8.160971E1,0E0,1.4084661E1,4.057122E2,2.5485565E1,2.0541064E2,0E0,1.4492554E1,4.5837402E-2,2.3518414E1,1.2439011E1,3.4318943E1,4.276821E1,8.149665E1,5.3901917E1,8.060069E1,1.8446342E1,4.986632E1,1.6805435E1,2.8605602E1,1.3374859E1,8.700317E0,1.3040389E1,0E0,0E0,0E0,0E0,0E0,0E0,0E0,0E0,0E0,0E0,0E0,0E0,0E0,0E0,0E0,0E0,0E0,0E0,0E0,0E0,0E0,0E0,0E0,0E0,0E0,0E0,0E0,0E0,0E0,0E0,0E0,0E0,0E0,0E0,0E0,0E0,0E0,0E0,0E0,0E0,0E0,0E0,0E0,0E0,0E0,0E0,0E0,0E0,0E0,0E0,0E0,0E0,0E0,0E0,0E0,0E0,0E0,0E0,0E0,0E0,0E0,0E0,0E0,0E0,0E0,0E0],"parents":[2147483647,0,0,1,1,2,2,3,3,4,4,5,5,6,6,7,7,8,8,9,9,10,10,11,11,12,12,13,13,14,14,16,16,17,17,18,18,19,19,20,20,21,21,22,22,23,23,25,25,27,27,28,28,29,29,30,30,33,33,34,34,35,35,36,36,37,37,39,39,40,40,41,41,43,43,44,44,45,45,46,46,48,48,49,49,50,50,51,51,52,52,53,53,54,54,55,55,57,57,58,58,59,59,60,60,61,61,62,62,65,65,66,66,67,67,68,68,69,69,71,71,74,74,76,76,77,77,78,78,79,79,81,81,82,82,83,83,84,84,85,85,86,86,87,87,88,88,89,89,90,90,91,91,92,92,93,93,94,94,95,95,96,96],"right_children":[2,4,6,8,10,12,14,16,18,20,22,24,26,28,30,-1,32,34,36,38,40,42,44,46,-1,48,-1,50,52,54,56,-1,-1,58,60,62,64,66,-1,68,70,72,-1,74,76,78,80,-1,82,84,86,88,90,92,94,96,-1,98,100,102,104,106,108,-1,-1,110,112,114,116,118,-1,120,-1,-1,122,-1,124,126,128,130,-1,132,134,136,138,140,142,144,146,148,150,152,154,156,158,160,162,-1,-1,-1,-1,-1,-1,-1,-1,-1,-1,-1,-1,-1,-1,-1,-1,-1,-1,-1,-1,-1,-1,-1,-1,-1,-1,-1,-1,-1,-1,-1,-1,-1,-1,-1,-1,-1,-1,-1,-1,-1,-1,-1,-1,-1,-1,-1,-1,-1,-1,-1,-1,-1,-1,-1,-1,-1,-1,-1,-1,-1,-1,-1,-1,-1,-1],"split_conditions":[5.1629E2,1E0,1E0,1E0,1E0,1.77934E3,2.04343E3,1E0,1E0,6E0,6E0,1E0,1.98826E3,6E0,2.354E3,8.57554E-2,1.9E1,2.6474E2,5.0574E2,4.9634E2,3.3895E2,2.5508E2,4.5311E2,6.8582E2,9.10785E-2,1E0,9.078415E-2,1.26154E3,1E0,7E0,2.65987E3,6.903458E-2,-6.529888E-2,1.1466E2,1E0,4E0,2E1,1.2237E2,-7.3669694E-2,1.8E1,4.9634E2,2.1364E2,8.368543E-2,1E0,4.9634E2,1E0,1E0,9.082671E-2,1E0,1E0,1E0,1.20604E3,1.29267E3,2.09627E3,1.8E1,1E0,9.051009E-2,2.3E1,7E0,1E0,2.7984E2,3E0,1E0,-8.402637E-2,8.207681E-2,2E0,1.4791E2,1E0,2.3991E2,8E0,-8.851786E-2,5.129E1,-7.219892E-2,9.2262566E-2,3.819E1,-8.035164E-2,1.5E1,1E0,7E0,1E0,9.209356E-2,1E0,7E0,1.23274E3,5.4224E2,1E0,1.35362E3,2.3E1,1E0,8E0,1.9E1,5E0,1E0,1.5E1,1E0,1E0,1.8E1,-8.431379E-2,-4.782174E-2,-4.3531634E-2,-7.3648E-2,-6.463339E-2,-9.361765E-3,-9.1445215E-2,8.4728114E-2,-8.442192E-2,-6.0344767E-2,-8.752562E-2,-7.135971E-2,-8.318352E-2,4.385321E-2,8.052315E-2,5.3043514E-2,-7.879411E-2,3.0803218E-2,3.673209E-2,-9.118396E-2,-7.7326E-2,4.5925085E-2,8.019868E-2,4.7466125E-2,-8.6124875E-2,5.680297E-2,-7.150255E-2,5.6688823E-2,-3.7796844E-2,7.5606585E-2,6.4027175E-2,3.814931E-2,5.0890207E-2,9.102916E-2,-6.414654E-2,6.378264E-2,8.694052E-2,7.5194955E-2,1.5834667E-2,-8.275833E-2,-6.444051E-2,4.062218E-2,1.5555203E-2,-1.921252E-2,2.9683648E-2,-9.427818E-2,-1.8748352E-2,3.421778E-2,-3.435149E-2,-7.929225E-2,4.25233E-2,-9.192019E-2,2.8343683E-2,6.977432E-2,-8.917793E-2,6.508069E-2,6.1060335E-2,-3.0871038E-4,1.9633604E-2,-4.2049997E-2,3.681183E-2,-6.807097E-2,7.676381E-2,2.3698146E-2,-7.202266E-2,5.0634366E-2],"split_indices":[0,5,2,0,10,0,0,4,4,1,1,3,0,1,0,0,1,0,0,0,0,0,0,0,0,5,0,0,9,1,0,0,0,0,3,1,1,0,0,1,0,0,0,0,0,5,6,0,10,10,8,0,0,0,1,8,0,1,1,2,0,1,9,0,0,1,0,11,0,1,0,0,0,0,0,0,1,4,1,4,0,1,1,0,0,10,0,1,7,1,1,1,8,1,11,7,1,0,0,0,0,0,0,0,0,0,0,0,0,0,0,0,0,0,0,0,0,0,0,0,0,0,0,0,0,0,0,0,0,0,0,0,0,0,0,0,0,0,0,0,0,0,0,0,0,0,0,0,0,0,0,0,0,0,0,0,0,0,0,0,0,0,0],"split_type":[0,0,0,0,0,0,0,0,0,0,0,0,0,0,0,0,0,0,0,0,0,0,0,0,0,0,0,0,0,0,0,0,0,0,0,0,0,0,0,0,0,0,0,0,0,0,0,0,0,0,0,0,0,0,0,0,0,0,0,0,0,0,0,0,0,0,0,0,0,0,0,0,0,0,0,0,0,0,0,0,0,0,0,0,0,0,0,0,0,0,0,0,0,0,0,0,0,0,0,0,0,0,0,0,0,0,0,0,0,0,0,0,0,0,0,0,0,0,0,0,0,0,0,0,0,0,0,0,0,0,0,0,0,0,0,0,0,0,0,0,0,0,0,0,0,0,0,0,0,0,0,0,0,0,0,0,0,0,0,0,0,0,0],"sum_hessian":[2.2984436E4,1.1129385E4,1.185505E4,9.990115E3,1.1392701E3,8.583679E3,3.2713708E3,1.3177039E2,9.858345E3,5.497627E2,5.8950745E2,5.7840713E3,2.7996074E3,2.3987302E3,8.7264056E2,1.1012154E2,2.1648844E1,4.9004775E3,4.9578667E3,2.1619261E2,3.335701E2,2.317681E2,3.5773932E2,4.613197E3,1.1708746E3,6.023209E2,2.1972866E3,7.4904974E2,1.6496805E3,3.9944363E2,4.7319693E2,2.0159369E1,1.489475E0,3.1339644E3,1.7665132E3,4.9451294E3,1.2737519E1,2.1369708E2,2.4955328E0,1.7033853E2,1.6323157E2,4.998471E1,1.8178339E2,3.425699E2,1.5169433E1,7.785837E2,3.8346133E3,2.7934283E2,3.229781E2,4.329695E2,3.1608026E2,1.4882555E3,1.61425E2,1.5670163E2,2.42742E2,1.9926775E2,2.739292E2,1.104615E3,2.0293495E3,1.4241221E3,3.423912E2,8.504128E2,4.0947166E3,6.493637E0,6.243882E0,3.685392E1,1.7684315E2,8.1691574E1,8.864695E1,1.5724174E2,5.9898195E0,4.799707E1,1.9876397E0,3.619323E1,3.0637668E2,6.212433E0,8.957E0,3.754256E2,4.0315805E2,3.447603E3,3.8701007E2,1.27630424E2,1.9534767E2,2.1263972E2,2.2032979E2,2.838474E2,3.2232834E1,7.890757E2,6.991798E2,4.8575603E1,1.12849396E2,2.1243511E1,1.3545811E2,1.4356055E2,9.918145E1,1.900786E2,9.189138E0,1.0506608E3,5.3954212E1,6.568575E2,1.372492E3,1.0294235E3,3.946986E2,2.7416607E1,3.149746E2,6.227951E2,2.276177E2,3.971097E3,1.2361961E2,4.989867E0,3.1864052E1,3.2104073E1,1.4473909E2,6.370654E1,1.7985037E1,7.8146965E1,1.0499983E1,3.9906135E0,1.5325113E2,2.5120106E1,2.2876966E1,9.475696E0,2.9690097E2,1.9904443E0,6.966555E0,2.641647E2,1.1126088E2,1.6945668E2,2.3370139E2,3.0908918E3,3.567113E2,1.4933472E0,1.2613708E2,1.03830696E2,9.151698E1,2.0739186E2,5.2478523E0,1.9975677E0,2.1833221E2,1.5368715E2,1.3016026E2,9.240915E0,2.2991919E1,7.0909875E2,7.997696E1,6.245364E2,7.46434E1,1.59577465E1,3.261786E1,6.471814E1,4.8131256E1,6.996139E0,1.4247373E1,1.23212845E2,1.2245268E1,1.223478E2,2.1212746E1,9.6934944E1,2.2465067E0,1.8085907E2,9.219526E0,1.9883987E0,7.2007403E0],"tree_param":{"num_deleted":"0","num_feature":"12","num_nodes":"163","size_leaf_vector":"1"}},{"base_weights":[9.639689E-3,-1.1112419E0,9.8971266E-1,-1.3226866E0,8.292785E-1,1.3020064E0,1.9134001E-1,1.5874399E0,-1.3628335E0,4.7447067E-1,1.1757019E0,7.5044733E-1,1.4636216E0,-9.388482E-2,1.4755318E0,8.145133E-2,8.1134397E-1,-1.050411E0,-1.6637428E0,1.052726E0,1.4459862E-1,1.4110546E0,1.0535338E0,5.300594E-1,8.734849E-2,1.740842E0,1.1628101E0,2.4011837E-1,-3.0655146E-1,8.3213425E-1,1.6057903E0,-6.189945E-2,7.057424E-2,-1.3468275E0,-5.4128903E-1,-1.6759427E0,-1.2404168E0,1.0899701E0,-7.034865E-2,8.615978E-2,1.57626E-2,9.606262E-1,7.625291E-2,-4.176538E-1,1.1223093E0,-1.6949281E-1,1.05094E0,1.4863555E0,8.742785E-2,9.629258E-1,1.6651108E0,1.5365897E-1,9.522158E-1,-3.863813E-1,5.2124745E-1,4.6532628E-1,1.1214756E0,1.4193408E0,8.638236E-2,-1.411678E0,-6.9663155E-1,-9.902636E-1,9.6386296E-1,-1.6951807E0,-1.4604933E0,-1.5633443E-1,-1.3700355E0,4.3308154E-2,1.1548287E0,-8.8655084E-2,1.3221093E-1,-7.791216E-2,1.1763142E0,6.268936E-2,-8.906631E-2,1.1587976E0,-7.1858875E-2,-5.2895045E-1,9.692572E-1,8.709521E-1,1.239566E0,1.5261108E0,-5.5203676E-2,6.5763164E-1,1.2417103E0,1.4894974E0,8.673617E-2,5.243026E-1,-1.645392E-2,-5.90051E-2,9.8970574E-1,-4.522191E-1,2.1934184E-1,6.72951E-1,-5.880233E-1,6.546636E-2,9.950657E-2,6.1415393E-2,7.965399E-1,1.4765869E0,-7.634338E-2,-7.348297E-2,-5.7322502E-2,-7.760217E-2,-6.5469826E-3,-5.9319407E-2,-1.9351197E-2,-2.012295E-2,8.368369E-2,-8.62962E-2,-8.305309E-2,-4.5593172E-2,-7.741427E-2,-7.944959E-2,9.203415E-2,-8.7200604E-2,-4.4243563E-2,7.7468246E-2,-8.557842E-2,8.0996715E-2,5.316623E-2,8.181771E-4,5.8221E-2,6.587742E-2,-6.285128E-2,5.063635E-2,6.810773E-2,-4.7377262E-2,1.662896E-2,-9.08586E-2,8.08538E-2,5.9443194E-2,3.446782E-2,6.408801E-2,3.9313737E-2,6.772488E-2,8.5807905E-2,5.5869687E-2,1.7226947E-2,7.212489E-2,5.537839E-2,7.653635E-2,-8.269623E-2,-8.12073E-2,2.8529907E-2,2.3471298E-2,-5.9764753E-3,3.4205087E-2,6.5123044E-2,-1.7521236E-2,-4.3607045E-2,-8.3129875E-2,1.5170994E-2,4.2611334E-2,-8.8154614E-2,-9.012626E-2,6.8341196E-2,-8.648874E-2,3.724474E-2,-7.132921E-2,6.0917895E-2,7.804137E-2,6.632323E-2],"categories":[],"categories_nodes":[],"categories_segments":[],"categories_sizes":[],"default_left":[0,0,0,0,0,0,0,0,0,0,0,0,0,0,0,0,0,0,0,0,0,0,0,0,0,0,0,0,0,0,0,0,0,0,0,0,0,0,0,0,0,0,0,0,0,0,0,0,0,0,0,0,0,0,0,0,0,0,0,0,0,0,0,0,0,0,0,0,0,0,0,0,0,0,0,0,0,0,0,0,0,0,0,0,0,0,0,0,0,0,0,0,0,0,0,0,0,0,0,0,0,0,0,0,0,0,0,0,0,0,0,0,0,0,0,0,0,0,0,0,0,0,0,0,0,0,0,0,0,0,0,0,0,0,0,0,0,0,0,0,0,0,0,0,0,0,0,0,0,0,0,0,0,0,0,0,0,0,0,0,0,0,0],"id":3,"left_children":[1,3,5,7,9,11,13,15,17,19,21,23,25,27,29,-1,31,33,35,37,39,41,43,45,-1,47,49,51,53,55,57,-1,-1,59,61,63,65,67,-1,-1,69,71,-1,73,75,77,79,81,-1,83,85,87,89,91,93,95,97,99,-1,101,103,105,107,109,111,113,115,117,119,-1,121,-1,123,-1,-1,125,-1,127,129,131,133,135,-1,137,139,141,-1,143,145,-1,147,149,151,153,155,-1,157,-1,159,161,-1,-1,-1,-1,-1,-1,-1,-1,-1,-1,-1,-1,-1,-1,-1,-1,-1,-1,-1,-1,-1,-1,-1,-1,-1,-1,-1,-1,-1,-1,-1,-1,-1,-1,-1,-1,-1,-1,-1,-1,-1,-1,-1,-1,-1,-1,-1,-1,-1,-1,-1,-1,-1,-1,-1,-1,-1,-1,-1,-1,-1,-1,-1],"loss_changes":[2.5107842E4,4.375794E3,3.039956E3,1.1254707E3,1.2828186E2,7.80209E2,1.2563982E3,2.9159546E0,8.8988477E2,9.89456E1,1.374353E1,4.3574817E2,5.6316797E2,1.994847E2,5.090796E1,0E0,1.2410404E1,7.0189844E2,2.2863281E1,1.8806656E1,6.748773E1,7.6781616E0,3.6149597E1,5.939945E2,0E0,4.3203125E0,3.2505566E2,6.712782E1,1.1357866E2,1.0837791E1,9.302002E0,0E0,0E0,1.2306592E2,1.1598457E3,1.696875E1,1.9336197E1,1.2597153E1,0E0,0E0,6.4378265E1,2.2839485E1,0E0,3.9791504E1,3.3153442E1,2.8556967E2,3.0638672E1,1.3053223E1,0E0,1.9747021E2,8.721436E0,6.1519943E1,1.0609924E1,6.2524582E1,2.5861061E1,1.4969905E1,1.0740662E0,3.768692E1,0E0,3.9439453E1,1.298655E2,1.5587439E2,3.832899E2,1.6445312E0,1.7458801E1,4.866583E1,2.098146E1,3.412919E1,5.7420654E0,0E0,3.4663025E1,0E0,1.4092068E1,0E0,0E0,8.511444E0,0E0,1.9143527E2,3.0517682E2,2.6974457E1,7.672058E0,1.2350464E0,0E0,1.5999112E2,3.1170654E1,3.7471252E1,0E0,3.1455116E1,3.359355E1,0E0,1.025502E1,6.0060547E1,2.489333E1,5.9843395E1,4.695396E1,0E0,4.2846798E1,0E0,1.8124586E1,5.422058E-1,0E0,0E0,0E0,0E0,0E0,0E0,0E0,0E0,0E0,0E0,0E0,0E0,0E0,0E0,0E0,0E0,0E0,0E0,0E0,0E0,0E0,0E0,0E0,0E0,0E0,0E0,0E0,0E0,0E0,0E0,0E0,0E0,0E0,0E0,0E0,0E0,0E0,0E0,0E0,0E0,0E0,0E0,0E0,0E0,0E0,0E0,0E0,0E0,0E0,0E0,0E0,0E0,0E0,0E0,0E0,0E0,0E0,0E0,0E0,0E0,0E0,0E0,0E0],"parents":[2147483647,0,0,1,1,2,2,3,3,4,4,5,5,6,6,7,7,8,8,9,9,10,10,11,11,12,12,13,13,14,14,16,16,17,17,18,18,19,19,20,20,21,21,22,22,23,23,25,25,26,26,27,27,28,28,29,29,30,30,33,33,34,34,35,35,36,36,37,37,40,40,41,41,43,43,44,44,45,45,46,46,47,47,49,49,50,50,51,51,52,52,53,53,54,54,55,55,56,56,57,57,59,59,60,60,61,61,62,62,63,63,64,64,65,65,66,66,67,67,68,68,70,70,72,72,75,75,77,77,78,78,79,79,80,80,81,81,83,83,84,84,85,85,87,87,88,88,90,90,91,91,92,92,93,93,94,94,96,96,98,98,99,99],"right_children":[2,4,6,8,10,12,14,16,18,20,22,24,26,28,30,-1,32,34,36,38,40,42,44,46,-1,48,50,52,54,56,58,-1,-1,60,62,64,66,68,-1,-1,70,72,-1,74,76,78,80,82,-1,84,86,88,90,92,94,96,98,100,-1,102,104,106,108,110,112,114,116,118,120,-1,122,-1,124,-1,-1,126,-1,128,130,132,134,136,-1,138,140,142,-1,144,146,-1,148,150,152,154,156,-1,158,-1,160,162,-1,-1,-1,-1,-1,-1,-1,-1,-1,-1,-1,-1,-1,-1,-1,-1,-1,-1,-1,-1,-1,-1,-1,-1,-1,-1,-1,-1,-1,-1,-1,-1,-1,-1,-1,-1,-1,-1,-1,-1,-1,-1,-1,-1,-1,-1,-1,-1,-1,-1,-1,-1,-1,-1,-1,-1,-1,-1,-1,-1,-1,-1,-1],"split_conditions":[4.8772E2,1E0,1E0,1E0,1E0,8.2364E2,2.23758E3,1E0,1E0,5E0,6E0,1E0,1E0,8E0,2.354E3,8.145133E-2,1.5E1,2.5095E2,1E0,4.4402E2,1E0,2.5508E2,8E0,1E0,8.734849E-2,8.732E2,1.85013E3,1E0,2.3E1,1E0,2.65987E3,-6.189945E-2,7.057424E-2,1E0,1E0,4.1533E2,5.37E1,2.094E1,-7.034865E-2,8.615978E-2,1.179E1,2E0,7.625291E-2,1.4021E2,4.5311E2,1E0,1E0,1E0,8.742785E-2,1E0,2.04343E3,2E0,5.7712E2,2.04343E3,1E0,2E0,1.5E1,1E0,8.638236E-2,2E1,1.1669E2,1E0,2.8835E2,1E0,3E0,5.129E1,2.908E2,1E0,5.129E1,-8.8655084E-2,4.7388E2,-7.791216E-2,2.2785E2,6.268936E-2,-8.906631E-2,1.9E1,-7.1858875E-2,1E0,5.2889E2,6E0,7.7968E2,1E0,-5.5203676E-2,6E0,6E0,1E0,8.673617E-2,5.5865E2,7.4087E2,-5.90051E-2,5E0,1.68042E3,9E0,1.81551E3,2.04343E3,6.546636E-2,1.4E1,6.1415393E-2,1.9E1,1.1E1,-7.634338E-2,-7.348297E-2,-5.7322502E-2,-7.760217E-2,-6.5469826E-3,-5.9319407E-2,-1.9351197E-2,-2.012295E-2,8.368369E-2,-8.62962E-2,-8.305309E-2,-4.5593172E-2,-7.741427E-2,-7.944959E-2,9.203415E-2,-8.7200604E-2,-4.4243563E-2,7.7468246E-2,-8.557842E-2,8.0996715E-2,5.316623E-2,8.181771E-4,5.8221E-2,6.587742E-2,-6.285128E-2,5.063635E-2,6.810773E-2,-4.7377262E-2,1.662896E-2,-9.08586E-2,8.08538E-2,5.9443194E-2,3.446782E-2,6.408801E-2,3.9313737E-2,6.772488E-2,8.5807905E-2,5.5869687E-2,1.7226947E-2,7.212489E-2,5.537839E-2,7.653635E-2,-8.269623E-2,-8.12073E-2,2.8529907E-2,2.3471298E-2,-5.9764753E-3,3.4205087E-2,6.5123044E-2,-1.7521236E-2,-4.3607045E-2,-8.3129875E-2,1.5170994E-2,4.2611334E-2,-8.8154614E-2,-9.012626E-2,6.8341196E-2,-8.648874E-2,3.724474E-2,-7.132921E-2,6.0917895E-2,7.804137E-2,6.632323E-2],"split_indices":[0,5,2,0,10,0,0,8,4,1,1,3,5,1,0,0,1,0,9,0,0,0,1,5,0,0,0,9,1,10,0,0,0,2,3,0,0,0,0,0,0,1,0,0,0,4,10,7,0,10,0,1,0,0,8,1,1,7,0,1,0,2,0,10,1,0,0,0,0,0,0,0,0,0,0,1,0,6,0,1,0,3,0,1,1,9,0,0,0,0,1,0,1,0,0,0,1,0,1,1,0,0,0,0,0,0,0,0,0,0,0,0,0,0,0,0,0,0,0,0,0,0,0,0,0,0,0,0,0,0,0,0,0,0,0,0,0,0,0,0,0,0,0,0,0,0,0,0,0,0,0,0,0,0,0,0,0,0,0,0,0,0,0],"split_type":[0,0,0,0,0,0,0,0,0,0,0,0,0,0,0,0,0,0,0,0,0,0,0,0,0,0,0,0,0,0,0,0,0,0,0,0,0,0,0,0,0,0,0,0,0,0,0,0,0,0,0,0,0,0,0,0,0,0,0,0,0,0,0,0,0,0,0,0,0,0,0,0,0,0,0,0,0,0,0,0,0,0,0,0,0,0,0,0,0,0,0,0,0,0,0,0,0,0,0,0,0,0,0,0,0,0,0,0,0,0,0,0,0,0,0,0,0,0,0,0,0,0,0,0,0,0,0,0,0,0,0,0,0,0,0,0,0,0,0,0,0,0,0,0,0,0,0,0,0,0,0,0,0,0,0,0,0,0,0,0,0,0,0],"sum_hessian":[2.2853523E4,1.0660863E4,1.219266E4,9.613651E3,1.0472122E3,8.763913E3,3.4287476E3,1.3029692E2,9.483354E3,5.18516E2,5.286961E2,1.9873033E3,6.7766094E3,2.8063677E3,6.2238007E2,1.2262702E2,7.669895E0,4.6548706E3,4.828483E3,1.8755196E2,3.3096402E2,1.7705505E2,3.5164108E2,1.6286483E3,3.5865503E2,3.5240999E3,3.2525095E3,1.0916888E3,1.7146787E3,1.06032486E2,5.163476E2,1.4965875E0,6.173308E0,2.9409636E3,1.7139072E3,4.6903516E3,1.3813147E2,1.8530302E2,2.24894E0,2.4039438E1,3.069246E2,3.7665348E1,1.3938971E2,1.5477926E1,3.3616315E2,6.953949E2,9.332534E2,1.0938996E2,3.41471E3,2.3287358E3,9.2377374E2,9.745763E2,1.1711252E2,1.5643518E3,1.5032698E2,4.790716E1,5.8125324E1,2.0908327E2,3.0726434E2,2.673171E3,2.6779272E2,1.3203883E3,3.9351895E2,4.2995645E3,3.907873E2,1.49875345E1,1.23143936E2,1.0909958E1,1.7439307E2,1.7889032E1,2.8903555E2,2.4798937E0,3.5185455E1,6.9904165E0,8.48751E0,3.3197772E2,4.1854434E0,5.289592E2,1.6643567E2,4.8043613E2,4.5281732E2,1.0814119E2,1.2487714E0,1.1131238E3,1.215612E3,2.685905E2,6.551832E2,3.059303E2,6.68646E2,1.4968745E0,1.1561565E2,1.4112161E3,1.5313574E2,1.3258768E2,1.7739311E1,1.3706063E1,3.42011E1,4.1651127E1,1.6474197E1,2.0558743E2,3.495829E0,2.1898972E3,4.832736E2,1.0590487E2,1.6188785E2,9.9570056E2,3.2468774E2,1.3468857E2,2.5883038E2,2.23558E3,2.0639844E3,5.5478443E1,3.3530884E2,8.845852E0,6.141683E0,6.80752E1,5.5068737E1,5.9342337E0,4.9757237E0,2.5923456E1,1.484696E2,2.6078308E2,2.8252476E1,3.3688663E1,1.4967887E0,1.966819E2,1.3529582E2,3.559248E2,1.7303442E2,3.1055061E1,1.3538062E2,1.7264584E2,3.0779028E2,4.1258456E2,4.023276E1,6.109734E1,4.7043854E1,4.49899E2,6.6322473E2,4.8295737E2,7.326547E2,2.6561963E2,2.9708772E0,5.7343163E0,3.0019598E2,1.1640052E2,5.522454E2,6.0088448E1,5.5527195E1,1.1373439E3,2.7387213E2,5.7460494E0,1.4738968E2,1.2410461E2,8.4830675E0,1.0989627E1,6.7496834E0,8.481376E0,2.5719725E1,2.2474396E0,1.4226757E1,1.25670876E2,7.991656E1],"tree_param":{"num_deleted":"0","num_feature":"12","num_nodes":"163","size_leaf_vector":"1"}},{"base_weights":[-6.2522544E-3,-1.0382347E0,9.7200596E-1,-1.2519078E0,8.0821955E-1,1.2935249E0,1.7272972E-1,7.862006E-2,-1.2966256E0,5.34514E-1,1.0953228E0,1.1049964E0,1.6302416E0,-1.012785E-1,1.4096203E0,-1.0251973E0,-1.565937E0,9.342993E-1,2.8518584E-1,1.3957406E0,9.295551E-1,9.5001894E-1,8.4353305E-2,1.4622084E0,8.4009774E-2,3.118832E-1,-2.9107812E-1,7.616211E-1,1.5485058E0,-1.264134E0,-5.094357E-1,-1.5783517E0,2.4384087E-1,1.0885745E0,-2.1231599E-1,8.279824E-2,1.8328738E-1,1.224912E0,7.330629E-2,1.2834646E0,7.2400504E-1,8.627442E-1,1.6521282E0,8.4164396E-2,1.3008841E0,9.1734153E-1,2.336953E-1,-3.79776E-1,5.414696E-1,8.607917E-1,-7.904513E-2,1.3733654E0,8.320981E-2,-1.358675E0,-4.4551688E-1,-1.0666804E0,8.27431E-2,-1.5989783E0,-9.621017E-1,-9.926618E-2,7.068502E-2,9.4181544E-1,7.0032805E-2,3.6716038E-1,-9.0118736E-2,-3.3173895E-1,6.6631424E-1,6.46949E-2,6.5581816E-1,-6.092904E-2,1.3265738E0,1.7501584E-1,8.756584E-1,7.7640885E-1,1.6531923E0,2.6625994E-1,8.584998E-2,1.3424227E0,-4.1629184E-2,1.0236435E0,9.494321E-2,1.4407212E-1,7.4909854E-1,-4.4925764E-1,4.5768383E-1,-6.5334004E-1,6.8504244E-1,1.0533214E0,4.9085602E-1,7.964072E-2,1.2930979E0,-6.085918E-2,-7.529767E-2,-8.399935E-2,-5.05685E-3,-3.3445027E-2,-6.4517274E-2,-8.129686E-2,-6.754025E-2,-5.9778538E-2,3.813939E-2,3.0568538E-2,-8.3768025E-2,5.178923E-2,-8.855425E-2,-7.810089E-2,4.7526333E-2,-2.4209684E-3,-9.247038E-2,4.038155E-2,-8.993489E-2,-5.6195926E-2,5.489678E-2,8.6124696E-2,5.779747E-2,5.22892E-2,-5.2108455E-2,1.7515674E-2,5.6156434E-2,4.460932E-3,4.4736627E-2,1.878206E-2,8.413323E-2,6.101768E-2,-1.3463984E-2,7.371989E-2,6.1999794E-2,-9.2082664E-2,8.786799E-2,4.1800123E-2,6.2821105E-2,-8.104708E-2,6.0405772E-2,1.2254599E-2,-1.9534262E-2,5.1594164E-2,-3.3407856E-2,-3.1301722E-2,-1.3130086E-2,2.9435245E-2,-2.210141E-2,4.432936E-2,-8.25998E-2,2.7939621E-2,7.6711774E-2,5.6547888E-2,-6.013772E-2,-2.0590898E-2,5.3499814E-2,6.69139E-2,2.7508488E-2],"categories":[],"categories_nodes":[],"categories_segments":[],"categories_sizes":[],"default_left":[0,0,0,0,0,0,0,0,0,0,0,0,0,0,0,0,0,0,0,0,0,0,0,0,0,0,0,0,0,0,0,0,0,0,0,0,0,0,0,0,0,0,0,0,0,0,0,0,0,0,0,0,0,0,0,0,0,0,0,0,0,0,0,0,0,0,0,0,0,0,0,0,0,0,0,0,0,0,0,0,0,0,0,0,0,0,0,0,0,0,0,0,0,0,0,0,0,0,0,0,0,0,0,0,0,0,0,0,0,0,0,0,0,0,0,0,0,0,0,0,0,0,0,0,0,0,0,0,0,0,0,0,0,0,0,0,0,0,0,0,0,0,0,0,0,0,0,0,0,0,0],"id":4,"left_children":[1,3,5,7,9,11,13,-1,15,17,19,21,23,25,27,29,31,33,35,37,39,41,-1,43,-1,45,47,49,51,53,55,57,59,61,63,-1,65,67,-1,69,71,73,75,-1,77,79,81,83,85,87,-1,89,-1,91,93,95,-1,97,99,101,-1,103,-1,105,-1,107,109,-1,111,-1,113,115,117,119,121,123,-1,125,127,129,131,133,135,137,139,141,143,145,147,-1,149,-1,-1,-1,-1,-1,-1,-1,-1,-1,-1,-1,-1,-1,-1,-1,-1,-1,-1,-1,-1,-1,-1,-1,-1,-1,-1,-1,-1,-1,-1,-1,-1,-1,-1,-1,-1,-1,-1,-1,-1,-1,-1,-1,-1,-1,-1,-1,-1,-1,-1,-1,-1,-1,-1,-1,-1,-1,-1,-1,-1],"loss_changes":[2.2680938E4,4.314502E3,2.9636729E3,1.2396807E3,8.8570496E1,5.203115E2,1.1218671E3,0E0,7.0359863E2,5.782451E1,2.623059E1,4.7430566E2,2.2305664E1,2.1263641E2,5.2846436E1,5.918237E2,1.09143555E2,3.9751556E1,5.0033722E1,5.4351807E-1,2.5202057E1,2.5401611E2,0E0,2.2196045E1,0E0,4.0197784E1,1.3739186E2,2.64319E1,7.7113037E0,2.536211E2,1.8395005E3,5.9573242E1,1.3725555E1,7.707306E0,2.5845284E1,0E0,8.394858E1,1.6189194E0,0E0,1.571228E1,1.895642E1,2.5189233E2,4.088025E1,0E0,2.2345093E1,8.408257E0,3.487682E1,9.793117E1,3.120123E1,6.903412E0,0E0,1.49823E0,0E0,5.952246E1,1.4504384E2,1.0700183E2,0E0,2.8918945E1,6.4628494E1,3.1382294E1,0E0,3.6784645E1,0E0,2.496353E1,0E0,7.023633E1,6.2068565E1,0E0,8.176328E0,0E0,6.7198334E0,5.507102E1,2.2955551E1,2.7202344E2,1.3089233E1,1.143878E1,0E0,3.4129639E0,4.5221924E1,2.7083054E0,2.5334713E1,3.501623E1,4.555764E1,5.1023438E1,1.5485956E1,3.1827406E1,1.635363E1,1.3209457E1,2.0062931E1,0E0,4.406128E0,0E0,0E0,0E0,0E0,0E0,0E0,0E0,0E0,0E0,0E0,0E0,0E0,0E0,0E0,0E0,0E0,0E0,0E0,0E0,0E0,0E0,0E0,0E0,0E0,0E0,0E0,0E0,0E0,0E0,0E0,0E0,0E0,0E0,0E0,0E0,0E0,0E0,0E0,0E0,0E0,0E0,0E0,0E0,0E0,0E0,0E0,0E0,0E0,0E0,0E0,0E0,0E0,0E0,0E0,0E0,0E0,0E0,0E0,0E0,0E0],"parents":[2147483647,0,0,1,1,2,2,3,3,4,4,5,5,6,6,8,8,9,9,10,10,11,11,12,12,13,13,14,14,15,15,16,16,17,17,18,18,19,19,20,20,21,21,23,23,25,25,26,26,27,27,28,28,29,29,30,30,31,31,32,32,33,33,34,34,36,36,37,37,39,39,40,40,41,41,42,42,44,44,45,45,46,46,47,47,48,48,49,49,51,51,53,53,54,54,55,55,57,57,58,58,59,59,61,61,63,63,65,65,66,66,68,68,70,70,71,71,72,72,73,73,74,74,75,75,77,77,78,78,79,79,80,80,81,81,82,82,83,83,84,84,85,85,86,86,87,87,88,88,90,90],"right_children":[2,4,6,8,10,12,14,-1,16,18,20,22,24,26,28,30,32,34,36,38,40,42,-1,44,-1,46,48,50,52,54,56,58,60,62,64,-1,66,68,-1,70,72,74,76,-1,78,80,82,84,86,88,-1,90,-1,92,94,96,-1,98,100,102,-1,104,-1,106,-1,108,110,-1,112,-1,114,116,118,120,122,124,-1,126,128,130,132,134,136,138,140,142,144,146,148,-1,150,-1,-1,-1,-1,-1,-1,-1,-1,-1,-1,-1,-1,-1,-1,-1,-1,-1,-1,-1,-1,-1,-1,-1,-1,-1,-1,-1,-1,-1,-1,-1,-1,-1,-1,-1,-1,-1,-1,-1,-1,-1,-1,-1,-1,-1,-1,-1,-1,-1,-1,-1,-1,-1,-1,-1,-1,-1,-1,-1,-1],"split_conditions":[5.4224E2,1E0,1E0,1E0,1E0,1.74482E3,2.23758E3,7.862006E-2,1E0,6E0,6E0,1E0,1.98826E3,6E0,2.354E3,2.9649E2,5.0574E2,1E0,1E0,2.9649E2,1.3244E2,1E0,8.4353305E-2,1E0,8.4009774E-2,6.6832E2,1E0,1E0,2.65987E3,1E0,1E0,1E0,2.1E1,4.1861E2,3.1603E2,8.279824E-2,3.3895E2,2.4623E2,7.330629E-2,9E0,2.7984E2,1E0,5.9488E2,8.4164396E-2,1E0,1E0,1.98826E3,2.09627E3,7.9995E2,1.1E1,-7.904513E-2,3E0,8.320981E-2,1.2E1,8.025E1,8E0,8.27431E-2,4.1209E2,4.3575E2,9E0,7.068502E-2,3.7616E2,7.0032805E-2,2.1164E2,-9.0118736E-2,2.5095E2,1E0,6.46949E-2,2.5508E2,-6.092904E-2,1E0,1.1E1,1.5E1,1E0,5.7712E2,4E0,8.584998E-2,7E0,2.2E1,4E0,6.5043E2,1.71347E3,4E0,1E0,2E1,7E0,2.3E1,1E0,1.9E1,7.964072E-2,1E0,-6.085918E-2,-7.529767E-2,-8.399935E-2,-5.05685E-3,-3.3445027E-2,-6.4517274E-2,-8.129686E-2,-6.754025E-2,-5.9778538E-2,3.813939E-2,3.0568538E-2,-8.3768025E-2,5.178923E-2,-8.855425E-2,-7.810089E-2,4.7526333E-2,-2.4209684E-3,-9.247038E-2,4.038155E-2,-8.993489E-2,-5.6195926E-2,5.489678E-2,8.6124696E-2,5.779747E-2,5.22892E-2,-5.2108455E-2,1.7515674E-2,5.6156434E-2,4.460932E-3,4.4736627E-2,1.878206E-2,8.413323E-2,6.101768E-2,-1.3463984E-2,7.371989E-2,6.1999794E-2,-9.2082664E-2,8.786799E-2,4.1800123E-2,6.2821105E-2,-8.104708E-2,6.0405772E-2,1.2254599E-2,-1.9534262E-2,5.1594164E-2,-3.3407856E-2,-3.1301722E-2,-1.3130086E-2,2.9435245E-2,-2.210141E-2,4.432936E-2,-8.25998E-2,2.7939621E-2,7.6711774E-2,5.6547888E-2,-6.013772E-2,-2.0590898E-2,5.3499814E-2,6.69139E-2,2.7508488E-2],"split_indices":[0,5,2,0,10,0,0,0,4,1,1,3,0,1,0,0,0,8,0,0,0,6,0,5,0,0,9,8,0,2,3,9,1,0,0,0,0,0,0,1,0,4,0,0,9,8,0,0,0,1,0,1,0,1,0,1,0,0,0,1,0,0,0,0,0,0,7,0,0,0,0,1,1,5,0,1,0,1,1,1,0,0,1,10,1,1,1,9,1,0,7,0,0,0,0,0,0,0,0,0,0,0,0,0,0,0,0,0,0,0,0,0,0,0,0,0,0,0,0,0,0,0,0,0,0,0,0,0,0,0,0,0,0,0,0,0,0,0,0,0,0,0,0,0,0,0,0,0,0,0,0],"split_type":[0,0,0,0,0,0,0,0,0,0,0,0,0,0,0,0,0,0,0,0,0,0,0,0,0,0,0,0,0,0,0,0,0,0,0,0,0,0,0,0,0,0,0,0,0,0,0,0,0,0,0,0,0,0,0,0,0,0,0,0,0,0,0,0,0,0,0,0,0,0,0,0,0,0,0,0,0,0,0,0,0,0,0,0,0,0,0,0,0,0,0,0,0,0,0,0,0,0,0,0,0,0,0,0,0,0,0,0,0,0,0,0,0,0,0,0,0,0,0,0,0,0,0,0,0,0,0,0,0,0,0,0,0,0,0,0,0,0,0,0,0,0,0,0,0,0,0,0,0,0,0],"sum_hessian":[2.2464486E4,1.0932028E4,1.1532458E4,9.798465E3,1.1335637E3,8.223737E3,3.3087205E3,1.5219032E2,9.646274E3,5.817874E2,5.517763E2,5.2747026E3,2.9490352E3,2.709421E3,5.9929956E2,4.806649E3,4.8396255E3,2.2241264E2,3.5937476E2,1.9356396E2,3.5821234E2,4.167679E3,1.1070234E3,6.8273584E2,2.2662993E3,8.5266656E2,1.8567543E3,1.0692102E2,4.923785E2,3.283877E3,1.5227719E3,4.80678E3,3.284569E1,1.9608089E2,2.6331758E1,2.3810823E1,3.3556393E2,6.185105E1,1.3171292E2,1.296835E2,2.2852885E2,3.7088806E3,4.5879846E2,2.84045E2,3.9869086E2,9.6291145E1,7.563754E2,1.6784768E3,1.7827751E2,1.0318522E2,3.7358017E0,2.0098465E2,2.9139386E2,2.9432993E3,3.4057758E2,1.2113827E3,3.1138922E2,4.64956E3,1.5722008E2,2.6104635E1,6.741058E0,1.3609761E2,5.998328E1,1.9862293E1,6.4694657E0,1.6255415E2,1.730098E2,5.4028133E1,7.822921E0,1.7347084E0,1.2794879E2,4.993108E1,1.7859776E2,3.3454604E3,3.6342017E2,2.074392E1,4.3805457E2,3.8672525E2,1.1965591E1,8.505266E1,1.1238485E1,6.454228E2,1.1095266E2,1.5503151E3,1.2816167E2,1.8743555E1,1.5953397E2,6.665034E1,3.6534878E1,4.877943E1,1.5220522E2,1.5058655E3,1.4374338E3,7.3441086E1,2.6713647E2,4.3742648E2,7.7395624E2,4.1889624E3,4.605976E2,1.3874712E2,1.847297E1,1.8414097E1,7.690538E0,1.321388E2,3.9588134E0,4.222151E0,1.5640142E1,1.3785178E2,2.4702375E1,1.64265E2,8.744792E0,1.2497886E0,6.573132E0,3.579477E1,9.215403E1,2.9189714E1,2.0741364E1,5.7963947E1,1.2063382E2,4.9167953E2,2.853781E3,8.504782E0,3.5491537E2,6.997948E0,1.374597E1,1.631348E2,2.2359045E2,5.9692206E0,5.996371E0,4.963426E1,3.54184E1,4.242615E0,6.99587E0,5.433259E2,1.0209685E2,9.272348E1,1.8229177E1,7.950196E2,7.5529553E2,1.121722E2,1.598946E1,7.4176927E0,1.1325862E1,1.4032916E2,1.9204794E1,6.491518E1,1.7351627E0,1.43919115E1,2.2142967E1,1.4272427E2,9.480948E0],"tree_param":{"num_deleted":"0","num_feature":"12","num_nodes":"151","size_leaf_vector":"1"}},{"base_weights":[9.249298E-3,-9.9598527E-1,9.3909955E-1,-1.2068261E0,7.8279394E-1,1.2430205E0,1.7225888E-1,7.36858E-2,-1.2427315E0,1.1461793E0,5.548391E-1,1.0297278E0,1.5437003E0,-7.718365E-2,1.3532172E0,-9.63553E-1,-1.5194165E0,9.7630227E-1,1.359437E0,2.4575809E-1,8.8964856E-1,8.618299E-1,8.156898E-2,1.36864E0,1.6064113E0,2.7393797E-2,-7.8852105E-1,8.007456E-1,1.484675E0,-1.3077977E0,-4.9583638E-1,-1.5393939E0,-9.293732E-1,1.1107739E0,5.5352974E-1,1.3944585E0,8.633618E-1,2.7020097E-2,1.0022697E0,-8.251702E-2,9.405041E-1,7.764054E-1,1.5859938E0,8.1678264E-2,1.2077277E0,1.5065033E0,8.120826E-2,3.4960482E-1,-1.18556835E-1,-8.586306E-1,2.0087056E-1,8.913112E-1,-7.3137954E-2,1.2919031E0,8.090899E-2,-1.5027856E0,-1.1766757E0,-9.436918E-1,8.501789E-1,-1.5436482E0,1.1578027E-1,-1.428434E0,1.8119147E-2,1.1880566E0,-7.374264E-2,3.017934E-1,7.008369E-2,1.1738231E0,7.410698E-2,-8.298816E-2,7.371769E-2,8.227618E-2,-9.2556626E-2,1.1609786E0,-8.474215E-2,8.2255825E-2,8.65851E-1,5.1512104E-1,1.0310491E0,-7.777148E-2,1.6135488E0,1.2557368E0,6.73174E-1,8.11623E-2,1.4158832E0,2.8415802E-1,9.8266315E-1,-1.9828793E-1,5.283305E-1,-1.0522583E0,-3.9887914E-1,1.2763208E0,-8.2945965E-2,5.970807E-1,1.0282376E0,1.3352334E0,4.0113443E-1,-6.783729E-2,-8.171636E-2,-6.215177E-2,-1.964259E-2,-5.8568288E-2,-1.5366444E-2,-1.3418262E-2,7.833751E-2,-6.8160705E-2,-7.906554E-2,5.0689887E-2,-7.429701E-2,-1.5052529E-2,-8.2466625E-2,6.170829E-2,-2.5144724E-2,1.5792105E-2,6.1751585E-2,-8.4958844E-2,6.276861E-2,4.400327E-2,-9.2030965E-2,6.395283E-2,-6.5100975E-2,4.396E-4,7.507455E-2,6.250052E-2,-6.432376E-2,-8.66543E-2,4.7702663E-2,4.8069175E-2,1.2469451E-2,3.455269E-2,6.0811102E-2,6.4173184E-2,8.162883E-2,6.561365E-2,4.511148E-2,1.321037E-2,6.120295E-2,7.6167025E-2,6.548375E-2,5.1100727E-2,1.2780668E-2,5.550619E-2,-7.676076E-2,3.7555303E-3,-2.3240054E-2,-8.1674255E-2,3.3280313E-2,-3.4990598E-2,-9.21699E-2,2.7896762E-2,-3.2402523E-2,-6.108256E-2,8.381561E-2,-9.140052E-3,4.9756594E-2,6.4493455E-2,3.9346352E-2,6.2448945E-2,7.758804E-2,6.1252203E-2,-7.016471E-2],"categories":[],"categories_nodes":[],"categories_segments":[],"categories_sizes":[],"default_left":[0,0,0,0,0,0,0,0,0,0,0,0,0,0,0,0,0,0,0,0,0,0,0,0,0,0,0,0,0,0,0,0,0,0,0,0,0,0,0,0,0,0,0,0,0,0,0,0,0,0,0,0,0,0,0,0,0,0,0,0,0,0,0,0,0,0,0,0,0,0,0,0,0,0,0,0,0,0,0,0,0,0,0,0,0,0,0,0,0,0,0,0,0,0,0,0,0,0,0,0,0,0,0,0,0,0,0,0,0,0,0,0,0,0,0,0,0,0,0,0,0,0,0,0,0,0,0,0,0,0,0,0,0,0,0,0,0,0,0,0,0,0,0,0,0,0,0,0,0,0,0,0,0,0,0,0,0,0,0,0,0],"id":5,"left_children":[1,3,5,7,9,11,13,-1,15,17,19,21,23,25,27,29,31,33,35,37,39,41,-1,43,45,47,49,51,53,55,57,59,61,63,65,67,69,71,73,-1,75,77,79,-1,81,83,-1,85,87,89,91,93,-1,95,-1,97,99,101,103,105,107,109,111,113,115,117,-1,119,-1,-1,-1,121,-1,123,-1,-1,125,127,129,-1,131,133,135,-1,137,139,141,143,145,147,149,151,-1,153,155,157,159,-1,-1,-1,-1,-1,-1,-1,-1,-1,-1,-1,-1,-1,-1,-1,-1,-1,-1,-1,-1,-1,-1,-1,-1,-1,-1,-1,-1,-1,-1,-1,-1,-1,-1,-1,-1,-1,-1,-1,-1,-1,-1,-1,-1,-1,-1,-1,-1,-1,-1,-1,-1,-1,-1,-1,-1,-1,-1,-1,-1,-1,-1,-1,-1],"loss_changes":[2.0887139E4,4.0280078E3,2.7051875E3,9.258135E2,9.367108E1,5.315596E2,9.710428E2,0E0,7.303408E2,1.4538086E1,7.238014E1,4.9017236E2,3.565332E1,2.0252295E2,4.0559204E1,7.5906006E2,5.463672E1,1.3444855E1,2.1252747E0,6.0566517E1,4.500296E1,2.3425854E2,0E0,3.7080933E1,2.0449219E0,1.116939E2,2.4376907E1,2.439833E1,9.82959E0,6.770703E1,1.2076875E3,3.2564453E1,7.487497E1,1.717273E1,1.2744629E1,1.6914673E0,2.5974834E1,2.9736938E1,3.7111504E1,0E0,1.59557495E1,2.2615308E2,3.7196167E1,0E0,1.3879944E1,1.8907471E0,0E0,3.039775E1,8.442295E1,2.86044E1,4.992092E1,3.775261E0,0E0,6.970703E0,0E0,1.8702393E1,8.426221E1,2.1735693E2,4.014665E2,2.9019531E1,1.9804398E1,2.532698E1,3.5846268E1,6.790863E0,2.886279E1,6.211726E1,0E0,1.6059586E1,0E0,0E0,0E0,2.8967136E1,0E0,1.863314E1,0E0,0E0,7.062245E1,1.9941006E2,1.0772656E2,0E0,4.0270996E-1,9.315369E0,1.0815292E1,0E0,6.3845825E-1,1.3901955E1,2.3838074E1,1.0613577E2,5.4403416E1,6.2509216E1,2.3780975E1,1.7743479E1,0E0,1.1662889E1,3.5914001E0,1.5175476E0,1.7256102E1,0E0,0E0,0E0,0E0,0E0,0E0,0E0,0E0,0E0,0E0,0E0,0E0,0E0,0E0,0E0,0E0,0E0,0E0,0E0,0E0,0E0,0E0,0E0,0E0,0E0,0E0,0E0,0E0,0E0,0E0,0E0,0E0,0E0,0E0,0E0,0E0,0E0,0E0,0E0,0E0,0E0,0E0,0E0,0E0,0E0,0E0,0E0,0E0,0E0,0E0,0E0,0E0,0E0,0E0,0E0,0E0,0E0,0E0,0E0,0E0,0E0,0E0,0E0,0E0],"parents":[2147483647,0,0,1,1,2,2,3,3,4,4,5,5,6,6,8,8,9,9,10,10,11,11,12,12,13,13,14,14,15,15,16,16,17,17,18,18,19,19,20,20,21,21,23,23,24,24,25,25,26,26,27,27,28,28,29,29,30,30,31,31,32,32,33,33,34,34,35,35,36,36,37,37,38,38,40,40,41,41,42,42,44,44,45,45,47,47,48,48,49,49,50,50,51,51,53,53,55,55,56,56,57,57,58,58,59,59,60,60,61,61,62,62,63,63,64,64,65,65,67,67,71,71,73,73,76,76,77,77,78,78,80,80,81,81,82,82,84,84,85,85,86,86,87,87,88,88,89,89,90,90,91,91,93,93,94,94,95,95,96,96],"right_children":[2,4,6,8,10,12,14,-1,16,18,20,22,24,26,28,30,32,34,36,38,40,42,-1,44,46,48,50,52,54,56,58,60,62,64,66,68,70,72,74,-1,76,78,80,-1,82,84,-1,86,88,90,92,94,-1,96,-1,98,100,102,104,106,108,110,112,114,116,118,-1,120,-1,-1,-1,122,-1,124,-1,-1,126,128,130,-1,132,134,136,-1,138,140,142,144,146,148,150,152,-1,154,156,158,160,-1,-1,-1,-1,-1,-1,-1,-1,-1,-1,-1,-1,-1,-1,-1,-1,-1,-1,-1,-1,-1,-1,-1,-1,-1,-1,-1,-1,-1,-1,-1,-1,-1,-1,-1,-1,-1,-1,-1,-1,-1,-1,-1,-1,-1,-1,-1,-1,-1,-1,-1,-1,-1,-1,-1,-1,-1,-1,-1,-1,-1,-1,-1,-1],"split_conditions":[5.2889E2,1E0,1E0,1E0,6E0,1.62042E3,2.23758E3,7.36858E-2,1E0,1E0,1E0,1E0,1.85013E3,1E0,2.354E3,2.442E2,1E0,4E0,4.6233E2,4.7388E2,7E0,1E0,8.156898E-2,1E0,1.98826E3,6E0,2.3E1,1E0,2.65987E3,1.1859E2,1E0,5.1629E2,3.3634E2,4.4402E2,4.8772E2,2.5508E2,4E0,4.3979E2,5.1629E2,-8.251702E-2,1E0,1E0,5.4224E2,8.1678264E-2,1E0,1E0,8.120826E-2,2.09627E3,1E0,1.68042E3,9.2663E2,1E0,-7.3137954E-2,1E0,8.090899E-2,1.1E1,1E0,1E0,2.8835E2,4E0,9E0,5.37E1,3.5331E2,2.094E1,5.1629E2,2.6723E2,7.008369E-2,2.1941E2,7.410698E-2,-8.298816E-2,7.371769E-2,4.3575E2,-9.2556626E-2,1E0,-8.474215E-2,8.2255825E-2,3.501E1,6E0,8.732E2,-7.777148E-2,5.9488E2,1.9E1,1.77934E3,8.11623E-2,7E0,5.5865E2,1E0,1.20604E3,7.5938E2,1.5E1,1.74482E3,7.4087E2,-8.2945965E-2,1E1,6E0,2.2E1,3E0,-6.783729E-2,-8.171636E-2,-6.215177E-2,-1.964259E-2,-5.8568288E-2,-1.5366444E-2,-1.3418262E-2,7.833751E-2,-6.8160705E-2,-7.906554E-2,5.0689887E-2,-7.429701E-2,-1.5052529E-2,-8.2466625E-2,6.170829E-2,-2.5144724E-2,1.5792105E-2,6.1751585E-2,-8.4958844E-2,6.276861E-2,4.400327E-2,-9.2030965E-2,6.395283E-2,-6.5100975E-2,4.396E-4,7.507455E-2,6.250052E-2,-6.432376E-2,-8.66543E-2,4.7702663E-2,4.8069175E-2,1.2469451E-2,3.455269E-2,6.0811102E-2,6.4173184E-2,8.162883E-2,6.561365E-2,4.511148E-2,1.321037E-2,6.120295E-2,7.6167025E-2,6.548375E-2,5.1100727E-2,1.2780668E-2,5.550619E-2,-7.676076E-2,3.7555303E-3,-2.3240054E-2,-8.1674255E-2,3.3280313E-2,-3.4990598E-2,-9.21699E-2,2.7896762E-2,-3.2402523E-2,-6.108256E-2,8.381561E-2,-9.140052E-3,4.9756594E-2,6.4493455E-2,3.9346352E-2,6.2448945E-2,7.758804E-2,6.1252203E-2,-7.016471E-2],"split_indices":[0,5,2,0,1,0,0,0,4,10,10,3,0,8,0,0,9,1,0,0,1,4,0,5,0,1,1,8,0,0,3,0,0,0,0,0,1,0,0,0,0,10,0,0,8,5,0,0,9,0,0,10,0,7,0,1,2,2,0,1,1,0,0,0,0,0,0,0,0,0,0,0,0,7,0,0,0,1,0,0,0,1,0,0,1,0,11,0,0,1,0,0,0,1,1,1,1,0,0,0,0,0,0,0,0,0,0,0,0,0,0,0,0,0,0,0,0,0,0,0,0,0,0,0,0,0,0,0,0,0,0,0,0,0,0,0,0,0,0,0,0,0,0,0,0,0,0,0,0,0,0,0,0,0,0,0,0,0,0,0,0],"split_type":[0,0,0,0,0,0,0,0,0,0,0,0,0,0,0,0,0,0,0,0,0,0,0,0,0,0,0,0,0,0,0,0,0,0,0,0,0,0,0,0,0,0,0,0,0,0,0,0,0,0,0,0,0,0,0,0,0,0,0,0,0,0,0,0,0,0,0,0,0,0,0,0,0,0,0,0,0,0,0,0,0,0,0,0,0,0,0,0,0,0,0,0,0,0,0,0,0,0,0,0,0,0,0,0,0,0,0,0,0,0,0,0,0,0,0,0,0,0,0,0,0,0,0,0,0,0,0,0,0,0,0,0,0,0,0,0,0,0,0,0,0,0,0,0,0,0,0,0,0,0,0,0,0,0,0,0,0,0,0,0,0],"sum_hessian":[2.2343934E4,1.0736711E4,1.1607223E4,9.599225E3,1.1374862E3,8.312228E3,3.2949949E3,1.2635111E2,9.472874E3,4.3693497E2,7.005513E2,4.865338E3,3.44689E3,2.721164E3,5.7383075E2,4.7174214E3,4.7554526E3,2.4630833E2,1.9062665E2,3.6517352E2,3.3537775E2,3.8057354E3,1.0596025E3,9.151196E2,2.5317703E3,2.373225E3,3.479388E2,1.1165876E2,4.62172E2,2.7163562E3,2.0010651E3,4.598161E3,1.5729143E2,1.8563567E2,6.067266E1,1.7636484E2,1.4261816E1,2.8407245E2,8.1101074E1,5.965755E0,3.29412E2,3.4060232E3,3.997122E2,3.4234015E2,5.727795E2,3.949699E2,2.1368005E3,7.3942426E2,1.6338009E3,3.2503833E2,2.290047E1,1.0794593E2,3.7128246E0,1.934787E2,2.686933E2,1.0879841E3,1.6283721E3,1.501706E3,4.9935898E2,4.58644E3,1.1721286E1,1.0269342E2,5.4598015E1,1.7426303E2,1.137263E1,4.783165E1,1.2841012E1,5.4247368E1,1.2211746E2,2.445692E0,1.1816124E1,2.7688263E2,7.189817E0,7.7131874E1,3.9691975E0,2.9542149E1,2.9986984E2,1.682584E3,1.7234392E3,2.9934509E0,3.9671872E2,5.243386E2,4.8440815E1,1.6521577E2,2.2975414E2,6.714566E2,6.79676E1,1.4551431E3,1.7865793E2,2.2780699E2,9.723134E1,1.4708688E1,8.191782E0,3.598377E1,7.1962166E1,1.8402794E2,9.450764E0,5.209407E2,5.6704346E2,1.5007319E3,1.276401E2,1.105387E3,3.9631915E2,1.952327E2,3.0412628E2,7.984413E2,3.7879985E3,7.7456703E0,3.9756157E0,1.7212101E1,8.5481316E1,1.59655695E1,3.8632446E1,9.300405E0,1.6496263E2,4.9907684E0,6.3818617E0,3.812918E1,9.702468E0,5.2499317E1,1.7480519E0,2.6420862E2,1.2674012E1,7.48966E1,2.2352777E0,9.230752E0,2.906391E2,6.2700037E2,1.0555836E3,6.0934845E2,1.1140907E3,2.5353432E1,3.713653E2,4.497053E2,7.463336E1,2.8650688E1,1.9790129E1,1.0757297E2,1.2218117E2,2.371219E1,6.4774445E2,6.522488E1,2.7427237E0,7.186474E2,7.364956E2,1.0016648E1,1.6864128E2,1.58902E2,6.890501E1,1.9833149E1,7.7398186E1,1.7466366E0,1.2962051E1,1.2342496E1,2.3641273E1,3.2442444E1,3.951972E1,1.3644334E2,4.75846E1,6.708655E0,2.7421093E0],"tree_param":{"num_deleted":"0","num_feature":"12","num_nodes":"161","size_leaf_vector":"1"}},{"base_weights":[6.4176666E-3,-1.0061104E0,8.6200964E-1,-1.1914887E0,7.3242104E-1,1.1323944E0,1.9072828E-1,6.968545E-2,-1.2262354E0,3.9678866E-1,1.0437394E0,5.969079E-1,1.3222032E0,-5.3954825E-2,1.3331548E0,-9.589962E-1,-1.4854951E0,9.795601E-1,1.12109385E-1,1.3321531E0,8.4846175E-1,3.252396E-1,7.9115435E-2,7.923236E-2,1.0501989E0,2.4357815E-1,-2.439838E-1,7.103655E-1,1.4629282E0,-1.1767827E0,-4.259179E-1,-1.5067446E0,-1.2599723E0,1.0081959E0,-5.808506E-2,-9.992609E-2,7.6747334E-1,1.3701756E0,3.7694532E-1,8.087209E-2,7.03291E-1,-4.1191995E-1,8.6632E-1,7.902685E-1,1.4061848E0,1.8391362E-1,8.1123555E-1,-3.1370792E-1,3.7842107E-1,8.216243E-1,-7.5100295E-2,1.3142956E0,7.817501E-2,-1.2439564E0,-5.482694E-1,-9.288318E-1,1.5105015E0,-1.5147483E0,-1.2245859E0,-7.595849E-1,-1.3842845E0,2.4832973E-1,1.0571643E0,-5.840093E-1,2.5434884E-1,-7.7716276E-2,9.2272985E-1,1.2026145E0,7.119893E-2,-8.073428E-2,6.2146813E-2,-8.326814E-2,8.001751E-1,-7.355175E-1,5.0096047E-1,9.922291E-1,3.928855E-1,1.1574916E0,5.476162E-1,1.2075859E0,7.8245305E-2,9.889086E-4,3.5463372E-1,-8.300417E-2,9.0617985E-1,-4.6508637E-1,-1.3417993E-1,5.593371E-1,-8.896089E-2,9.033401E-1,-7.104414E-2,6.692334E-2,1.0316875E0,-6.855799E-2,-5.334577E-2,-6.248605E-2,7.8014233E-3,-5.4113742E-2,-1.4675237E-2,5.8451634E-2,7.764032E-2,-7.152716E-2,-7.7115096E-2,-7.995137E-2,-2.0554453E-2,1.7917087E-2,-4.773887E-2,-7.233115E-2,-3.0699172E-3,7.2570644E-2,-7.686748E-2,6.625304E-2,4.409327E-2,7.227128E-2,-4.3789003E-2,8.252116E-2,4.9014855E-3,5.2945495E-2,-7.7378035E-2,8.011359E-2,4.8293136E-2,4.1819323E-2,-6.863358E-2,-5.7415675E-2,4.5923176E-3,-4.0611632E-2,7.153159E-2,4.1166175E-2,5.8221865E-2,2.5533622E-2,-1.01116076E-1,6.0433608E-2,2.5837982E-4,9.32492E-3,4.4989903E-2,6.25488E-2,2.548939E-2,1.9310256E-2,-4.397468E-3,2.735292E-2,-6.1298464E-3,-6.825088E-2,4.9145482E-2,-7.804078E-2,-1.6123839E-2,2.5313763E-2,-1.4969847E-2,-7.062805E-2,3.0269045E-2,5.248024E-2,-7.6297196E-3,6.2483747E-2,-6.915024E-2],"categories":[],"categories_nodes":[],"categories_segments":[],"categories_sizes":[],"default_left":[0,0,0,0,0,0,0,0,0,0,0,0,0,0,0,0,0,0,0,0,0,0,0,0,0,0,0,0,0,0,0,0,0,0,0,0,0,0,0,0,0,0,0,0,0,0,0,0,0,0,0,0,0,0,0,0,0,0,0,0,0,0,0,0,0,0,0,0,0,0,0,0,0,0,0,0,0,0,0,0,0,0,0,0,0,0,0,0,0,0,0,0,0,0,0,0,0,0,0,0,0,0,0,0,0,0,0,0,0,0,0,0,0,0,0,0,0,0,0,0,0,0,0,0,0,0,0,0,0,0,0,0,0,0,0,0,0,0,0,0,0,0,0,0,0,0,0,0,0,0,0,0,0],"id":6,"left_children":[1,3,5,7,9,11,13,-1,15,17,19,21,23,25,27,29,31,33,35,37,39,41,-1,-1,43,45,47,49,51,53,55,57,59,61,-1,63,65,67,69,-1,71,73,75,77,79,81,83,85,87,89,-1,91,-1,93,95,97,99,101,103,105,107,109,111,113,115,-1,117,119,-1,-1,-1,-1,121,123,125,127,129,131,133,135,-1,137,139,-1,141,143,145,147,-1,149,-1,-1,151,-1,-1,-1,-1,-1,-1,-1,-1,-1,-1,-1,-1,-1,-1,-1,-1,-1,-1,-1,-1,-1,-1,-1,-1,-1,-1,-1,-1,-1,-1,-1,-1,-1,-1,-1,-1,-1,-1,-1,-1,-1,-1,-1,-1,-1,-1,-1,-1,-1,-1,-1,-1,-1,-1,-1,-1,-1,-1,-1,-1],"loss_changes":[1.909198E4,3.2538467E3,2.1678184E3,8.210459E2,1.0127124E2,8.646582E2,9.5913916E2,0E0,6.221914E2,7.7850075E1,2.727002E1,5.965002E2,4.4704688E2,1.5988156E2,4.7878174E1,5.1439404E2,1.9986328E1,1.0619263E1,4.410299E1,6.8137817E0,3.2735657E1,6.9814386E2,0E0,0E0,2.8477368E2,3.7181976E1,7.499926E1,2.740311E1,5.418457E0,1.32229E2,1.2556632E3,7.5595703E0,2.3789856E1,5.415207E0,0E0,4.1353294E1,2.9393795E1,3.3966064E-2,1.7712032E1,0E0,6.0313766E1,2.1932878E2,5.9769592E1,1.586903E2,3.917041E1,3.118745E1,2.6033134E1,4.2121628E1,6.902445E1,1.9951225E1,0E0,4.0161133E-2,0E0,6.2569336E1,1.512497E2,9.941333E1,2.026123E0,7.1884766E0,3.5956985E1,1.8166668E1,2.6190613E1,2.4885405E1,5.549057E0,6.1564922E1,3.0266201E1,0E0,2.6307E1,3.5162048E0,0E0,0E0,0E0,0E0,2.0628998E1,1.8714233E2,2.3871075E2,2.221051E1,6.181797E1,4.1896484E1,1.3699521E2,1.7013733E1,0E0,1.6585596E1,4.7504333E1,0E0,1.8998276E1,1.3102574E2,7.543737E1,1.55233345E1,0E0,1.5434982E1,0E0,0E0,1.2652672E1,0E0,0E0,0E0,0E0,0E0,0E0,0E0,0E0,0E0,0E0,0E0,0E0,0E0,0E0,0E0,0E0,0E0,0E0,0E0,0E0,0E0,0E0,0E0,0E0,0E0,0E0,0E0,0E0,0E0,0E0,0E0,0E0,0E0,0E0,0E0,0E0,0E0,0E0,0E0,0E0,0E0,0E0,0E0,0E0,0E0,0E0,0E0,0E0,0E0,0E0,0E0,0E0,0E0,0E0,0E0,0E0,0E0,0E0,0E0,0E0],"parents":[2147483647,0,0,1,1,2,2,3,3,4,4,5,5,6,6,8,8,9,9,10,10,11,11,12,12,13,13,14,14,15,15,16,16,17,17,18,18,19,19,20,20,21,21,24,24,25,25,26,26,27,27,28,28,29,29,30,30,31,31,32,32,33,33,35,35,36,36,37,37,38,38,40,40,41,41,42,42,43,43,44,44,45,45,46,46,47,47,48,48,49,49,51,51,53,53,54,54,55,55,56,56,57,57,58,58,59,59,60,60,61,61,62,62,63,63,64,64,66,66,67,67,72,72,73,73,74,74,75,75,76,76,77,77,78,78,79,79,81,81,82,82,84,84,85,85,86,86,87,87,89,89,92,92],"right_children":[2,4,6,8,10,12,14,-1,16,18,20,22,24,26,28,30,32,34,36,38,40,42,-1,-1,44,46,48,50,52,54,56,58,60,62,-1,64,66,68,70,-1,72,74,76,78,80,82,84,86,88,90,-1,92,-1,94,96,98,100,102,104,106,108,110,112,114,116,-1,118,120,-1,-1,-1,-1,122,124,126,128,130,132,134,136,-1,138,140,-1,142,144,146,148,-1,150,-1,-1,152,-1,-1,-1,-1,-1,-1,-1,-1,-1,-1,-1,-1,-1,-1,-1,-1,-1,-1,-1,-1,-1,-1,-1,-1,-1,-1,-1,-1,-1,-1,-1,-1,-1,-1,-1,-1,-1,-1,-1,-1,-1,-1,-1,-1,-1,-1,-1,-1,-1,-1,-1,-1,-1,-1,-1,-1,-1,-1,-1,-1],"split_conditions":[4.7388E2,1E0,1E0,1E0,1E0,8.732E2,2.23758E3,6.968545E-2,1E0,4E0,6E0,1E0,1E0,8E0,2.354E3,2.8835E2,4.1209E2,4.4402E2,2.1E1,4.2558E2,1E0,1E0,7.9115435E-2,7.923236E-2,1.68042E3,1E0,2.04343E3,1E0,2.65987E3,1E0,1E0,1E0,4E0,2.094E1,-5.808506E-2,2.2785E2,5.37E1,2.0177E2,4E0,8.087209E-2,3.501E1,1E0,7.5938E2,6E0,1.98826E3,1E0,1E0,1E0,1E0,1E0,-7.5100295E-2,1E0,7.817501E-2,1E0,1.8201E2,4.4402E2,3.0209E2,1.1264E2,2.908E2,4.1533E2,1E0,1E0,1.4996E2,1E0,2.3576E2,-7.7716276E-2,1E0,1E0,7.119893E-2,-8.073428E-2,6.2146813E-2,-8.326814E-2,4.5311E2,1E0,5.2889E2,1E0,1E0,1E0,1E0,1E0,7.8245305E-2,7.4087E2,1.55941E3,-8.300417E-2,5.7712E2,7.2194E2,6.8582E2,9E0,-8.896089E-2,1.7E1,-7.104414E-2,6.692334E-2,1.1E1,-6.855799E-2,-5.334577E-2,-6.248605E-2,7.8014233E-3,-5.4113742E-2,-1.4675237E-2,5.8451634E-2,7.764032E-2,-7.152716E-2,-7.7115096E-2,-7.995137E-2,-2.0554453E-2,1.7917087E-2,-4.773887E-2,-7.233115E-2,-3.0699172E-3,7.2570644E-2,-7.686748E-2,6.625304E-2,4.409327E-2,7.227128E-2,-4.3789003E-2,8.252116E-2,4.9014855E-3,5.2945495E-2,-7.7378035E-2,8.011359E-2,4.8293136E-2,4.1819323E-2,-6.863358E-2,-5.7415675E-2,4.5923176E-3,-4.0611632E-2,7.153159E-2,4.1166175E-2,5.8221865E-2,2.5533622E-2,-1.01116076E-1,6.0433608E-2,2.5837982E-4,9.32492E-3,4.4989903E-2,6.25488E-2,2.548939E-2,1.9310256E-2,-4.397468E-3,2.735292E-2,-6.1298464E-3,-6.825088E-2,4.9145482E-2,-7.804078E-2,-1.6123839E-2,2.5313763E-2,-1.4969847E-2,-7.062805E-2,3.0269045E-2,5.248024E-2,-7.6297196E-3,6.2483747E-2,-6.915024E-2],"split_indices":[0,5,2,0,10,0,0,0,4,1,1,3,5,1,0,0,0,0,1,0,0,5,0,0,0,9,0,8,0,2,3,9,1,0,0,0,0,0,1,0,0,4,0,1,0,10,1,10,8,9,0,11,0,10,0,0,0,0,0,0,9,0,0,0,0,0,11,0,0,0,0,0,0,6,0,10,7,8,10,9,0,0,0,0,0,0,0,1,0,1,0,0,1,0,0,0,0,0,0,0,0,0,0,0,0,0,0,0,0,0,0,0,0,0,0,0,0,0,0,0,0,0,0,0,0,0,0,0,0,0,0,0,0,0,0,0,0,0,0,0,0,0,0,0,0,0,0,0,0,0,0,0,0],"split_type":[0,0,0,0,0,0,0,0,0,0,0,0,0,0,0,0,0,0,0,0,0,0,0,0,0,0,0,0,0,0,0,0,0,0,0,0,0,0,0,0,0,0,0,0,0,0,0,0,0,0,0,0,0,0,0,0,0,0,0,0,0,0,0,0,0,0,0,0,0,0,0,0,0,0,0,0,0,0,0,0,0,0,0,0,0,0,0,0,0,0,0,0,0,0,0,0,0,0,0,0,0,0,0,0,0,0,0,0,0,0,0,0,0,0,0,0,0,0,0,0,0,0,0,0,0,0,0,0,0,0,0,0,0,0,0,0,0,0,0,0,0,0,0,0,0,0,0,0,0,0,0,0,0],"sum_hessian":[2.2036252E4,1.009244E4,1.1943812E4,9.120268E3,9.721726E2,8.513843E3,3.429969E3,1.2043755E2,8.99983E3,4.6891254E2,5.0326007E2,2.2291455E3,6.2846978E3,2.8257146E3,6.042543E2,4.43403E3,4.5658003E3,1.5308627E2,3.1582626E2,2.0082767E2,3.024324E2,1.7484419E3,4.8070355E2,3.196104E3,3.0885938E3,1.1012223E3,1.7244922E3,1.0531513E2,4.9893918E2,3.147093E3,1.2869368E3,4.167449E3,3.983513E2,1.515882E2,1.4980807E0,2.3926299E2,7.656326E1,1.9272186E2,8.105796E0,4.641692E1,2.5601547E2,7.402185E2,1.0082234E3,1.7869995E3,1.3015941E3,9.976833E2,1.03539085E2,1.5512153E3,1.7327696E2,1.0087101E2,4.444119E0,2.0703557E2,2.919036E2,2.8423333E3,3.0475974E2,1.02202386E3,2.649129E2,4.048247E3,1.1920196E2,8.0684875E1,3.176664E2,9.545015E0,1.4204318E2,1.0083417E2,1.3842882E2,4.2340093E0,7.2329254E1,5.251727E1,1.4020459E2,2.19443E0,5.911366E0,9.42405E0,2.4659143E2,5.4664E2,1.935785E2,7.95552E2,2.1267143E2,7.0949695E2,1.0775026E3,5.819905E2,7.196037E2,4.821117E2,5.155716E2,3.220754E0,1.0031833E2,8.4072406E2,7.104912E2,1.6055531E2,1.272165E1,9.7900734E1,2.9702792E0,1.8728151E2,1.9754059E1,1.65004E3,1.1922932E3,1.5230042E2,1.5245934E2,8.2263837E2,1.9938553E2,3.2358814E1,2.325541E2,1.01112036E3,3.0371267E3,8.096792E1,3.8234043E1,1.1869397E1,6.8815475E1,3.0328128E2,1.4385128E1,5.8146486E0,3.7303667E0,5.358867E1,8.845451E1,1.217764E1,8.8656525E1,1.2976715E1,1.254521E2,6.909177E1,3.23749E0,1.7391392E1,3.5125877E1,2.4315425E2,3.4371889E0,3.644282E2,1.822118E2,8.0290985E1,1.1328751E2,4.0454562E2,3.9100638E2,2.0353387E2,9.13756E0,6.792779E2,3.0219078E1,5.3275726E2,5.447453E2,5.471737E2,3.4816765E1,8.980388E1,3.923078E2,3.6731842E2,1.4825317E2,2.7296906E0,9.758864E1,9.567423E1,7.4504987E2,1.4527516E2,5.65216E2,2.9862394E0,1.5756908E2,8.599498E1,1.1905752E1,1.8560932E1,1.1931258E0],"tree_param":{"num_deleted":"0","num_feature":"12","num_nodes":"153","size_leaf_vector":"1"}},{"base_weights":[2.2964394E-2,-9.476625E-1,8.6529857E-1,-1.1363997E0,7.2641104E-1,1.1391958E0,2.0102185E-1,1.4005381E0,-1.1740386E0,3.7206024E-1,1.0580451E0,5.8256155E-1,1.2598983E0,-5.3123526E-2,1.2834872E0,7.101018E-2,4.4254843E-2,-9.3034935E-1,-1.4120692E0,7.8366034E-2,2.9563907E-1,1.327094E0,8.631906E-1,3.9282292E-1,7.666716E-2,1.5036476E0,1.0118247E0,2.939352E-1,-1.4317708E-1,7.296386E-1,1.4084067E0,-1.18823E0,-5.386376E-1,-1.4456832E0,-1.0874032E0,-8.743188E-2,4.140568E-1,1.2431324E0,7.2437435E-2,9.0475357E-1,-7.712256E-2,-2.5896657E-1,8.9569634E-1,1.10642E0,1.5394185E0,7.860371E-1,1.3911432E0,1.7108205E-1,9.161172E-1,-6.4718224E-2,-8.1730574E-1,-8.9828745E-2,8.283484E-1,1.4368942E0,6.958964E-1,-9.4901735E-1,-1.2975103E0,-9.69949E-1,7.105803E-1,-1.270421E0,-1.4819117E0,-9.277853E-1,-1.3069245E0,7.730645E-1,2.0550248E-1,1.3434392E0,6.557468E-1,-2.8268668E-1,9.6298116E-1,-6.109547E-1,9.13628E-1,1.1553179E0,6.974502E-1,7.683338E-1,7.655766E-2,6.9837324E-2,7.7215016E-2,5.5112445E-1,1.0304359E0,1.2126406E0,7.582923E-2,-7.944177E-2,1.9744894E-1,-1.4319834E-1,1.0663378E0,-1.0808906E-1,4.8464024E-1,-1.21525615E-1,-1.4323897E0,6.8238154E-2,6.7459273E-1,1.330891E0,7.593253E-2,-8.13603E-2,7.266811E-2,-7.049804E-2,-3.6810666E-2,-4.9241055E-2,-6.765316E-2,-6.3468575E-2,-2.9413361E-2,-2.3307366E-2,7.316177E-2,-6.91619E-2,-4.8343357E-2,-7.4632205E-2,-5.5532407E-2,-5.3180076E-2,1.313135E-2,-7.11017E-2,2.5131166E-2,7.28397E-2,3.1906806E-2,-1.9148485E-4,5.2731264E-2,5.8534235E-2,7.292382E-2,1.3971715E-2,4.222198E-2,5.3158622E-2,-8.563192E-2,7.55915E-2,4.5546405E-2,-5.2020747E-2,1.5559728E-2,-4.4523805E-2,7.136461E-2,5.9863616E-2,1.792821E-3,1.8578893E-2,4.846892E-2,1.5409708E-2,8.4878266E-2,5.9547883E-2,2.4141422E-2,6.2986396E-2,4.6642356E-2,5.2801665E-2,6.709134E-2,2.6683679E-2,1.0494617E-3,-7.996372E-2,2.9520912E-2,5.9799787E-2,2.6611328E-2,-2.804279E-3,-3.0467987E-2,3.0601561E-2,-8.25552E-2,-5.492678E-2,1.3017266E-2,-7.978385E-2,1.3916421E-2,-2.456089E-2,4.4054937E-2,7.721131E-2,6.352398E-2],"categories":[],"categories_nodes":[],"categories_segments":[],"categories_sizes":[],"default_left":[0,0,0,0,0,0,0,0,0,0,0,0,0,0,0,0,0,0,0,0,0,0,0,0,0,0,0,0,0,0,0,0,0,0,0,0,0,0,0,0,0,0,0,0,0,0,0,0,0,0,0,0,0,0,0,0,0,0,0,0,0,0,0,0,0,0,0,0,0,0,0,0,0,0,0,0,0,0,0,0,0,0,0,0,0,0,0,0,0,0,0,0,0,0,0,0,0,0,0,0,0,0,0,0,0,0,0,0,0,0,0,0,0,0,0,0,0,0,0,0,0,0,0,0,0,0,0,0,0,0,0,0,0,0,0,0,0,0,0,0,0,0,0,0,0,0,0,0,0,0,0,0,0,0,0,0,0],"id":7,"left_children":[1,3,5,7,9,11,13,15,17,19,21,23,25,27,29,-1,-1,31,33,-1,35,37,39,41,-1,43,45,47,49,51,53,55,57,59,61,-1,63,65,-1,67,-1,69,71,73,75,77,79,81,83,85,87,-1,89,91,93,95,97,99,101,103,105,107,109,111,113,115,117,119,121,123,125,127,129,131,-1,-1,-1,133,135,137,-1,-1,139,141,143,145,147,149,151,-1,153,155,-1,-1,-1,-1,-1,-1,-1,-1,-1,-1,-1,-1,-1,-1,-1,-1,-1,-1,-1,-1,-1,-1,-1,-1,-1,-1,-1,-1,-1,-1,-1,-1,-1,-1,-1,-1,-1,-1,-1,-1,-1,-1,-1,-1,-1,-1,-1,-1,-1,-1,-1,-1,-1,-1,-1,-1,-1,-1,-1,-1,-1,-1,-1,-1,-1],"loss_changes":[1.7961887E4,3.2259307E3,2.1397773E3,8.7759863E2,1.2121069E2,5.58791E2,9.4506995E2,1.0702515E-1,5.230537E2,4.537345E1,2.6849243E1,2.674535E2,4.122578E2,8.701802E1,4.4164185E1,0E0,0E0,4.508777E2,4.8314453E1,0E0,1.1519948E2,4.7103882E-1,3.264688E1,4.0667886E2,0E0,4.7311035E1,2.8962598E2,4.3691788E1,1.1684915E2,3.198198E1,9.796509E0,6.920654E1,9.5775903E2,2.4399414E1,1.3956116E1,0E0,3.336917E1,7.288147E0,0E0,2.1559631E1,0E0,2.2378197E2,3.5233276E1,4.025476E1,4.5410156E-2,1.2172937E2,2.649292E1,2.2600964E1,1.5168907E1,4.7249443E1,9.8400894E1,0E0,8.842369E0,2.4031982E0,4.176043E1,8.2208496E1,3.074878E1,1.5020276E2,4.0496082E2,2.3184814E1,1.1986328E1,4.1361023E1,3.816748E1,1.42172165E1,5.059414E1,6.271515E-1,1.3387756E0,3.1005413E1,7.0140686E0,1.65296E2,1.1735542E2,1.4124603E1,3.5046265E1,6.9024864E1,0E0,0E0,0E0,4.6981873E1,2.2159912E1,9.248901E0,0E0,0E0,2.8116705E1,1.4404963E1,5.0948944E0,4.7846336E1,4.0495934E1,4.1016647E1,3.4569366E1,0E0,2.3058064E1,1.0072327E0,0E0,0E0,0E0,0E0,0E0,0E0,0E0,0E0,0E0,0E0,0E0,0E0,0E0,0E0,0E0,0E0,0E0,0E0,0E0,0E0,0E0,0E0,0E0,0E0,0E0,0E0,0E0,0E0,0E0,0E0,0E0,0E0,0E0,0E0,0E0,0E0,0E0,0E0,0E0,0E0,0E0,0E0,0E0,0E0,0E0,0E0,0E0,0E0,0E0,0E0,0E0,0E0,0E0,0E0,0E0,0E0,0E0,0E0,0E0,0E0,0E0,0E0,0E0,0E0,0E0],"parents":[2147483647,0,0,1,1,2,2,3,3,4,4,5,5,6,6,7,7,8,8,9,9,10,10,11,11,12,12,13,13,14,14,17,17,18,18,20,20,21,21,22,22,23,23,25,25,26,26,27,27,28,28,29,29,30,30,31,31,32,32,33,33,34,34,36,36,37,37,39,39,41,41,42,42,43,43,44,44,45,45,46,46,47,47,48,48,49,49,50,50,52,52,53,53,54,54,55,55,56,56,57,57,58,58,59,59,60,60,61,61,62,62,63,63,64,64,65,65,66,66,67,67,68,68,69,69,70,70,71,71,72,72,73,73,77,77,78,78,79,79,82,82,83,83,84,84,85,85,86,86,87,87,88,88,90,90,91,91],"right_children":[2,4,6,8,10,12,14,16,18,20,22,24,26,28,30,-1,-1,32,34,-1,36,38,40,42,-1,44,46,48,50,52,54,56,58,60,62,-1,64,66,-1,68,-1,70,72,74,76,78,80,82,84,86,88,-1,90,92,94,96,98,100,102,104,106,108,110,112,114,116,118,120,122,124,126,128,130,132,-1,-1,-1,134,136,138,-1,-1,140,142,144,146,148,150,152,-1,154,156,-1,-1,-1,-1,-1,-1,-1,-1,-1,-1,-1,-1,-1,-1,-1,-1,-1,-1,-1,-1,-1,-1,-1,-1,-1,-1,-1,-1,-1,-1,-1,-1,-1,-1,-1,-1,-1,-1,-1,-1,-1,-1,-1,-1,-1,-1,-1,-1,-1,-1,-1,-1,-1,-1,-1,-1,-1,-1,-1,-1,-1,-1,-1,-1,-1],"split_conditions":[4.9634E2,1E0,1E0,1E0,1E0,7.5938E2,2.23758E3,1E0,1E0,1E0,6E0,1E0,1E0,4E0,2.354E3,7.101018E-2,4.4254843E-2,2.442E2,4.1209E2,7.8366034E-2,2.094E1,3.8797E2,4.5311E2,1E0,7.666716E-2,8.732E2,1.71347E3,1.98826E3,1E0,2E0,1E0,7E0,1E0,4E0,1.3E1,-8.743188E-2,6E0,3.1381E2,7.2437435E-2,8E0,-7.712256E-2,1E0,7E0,1E0,9.5355E2,1E0,1.98826E3,5.4224E2,1E0,2.3E1,1.09581E3,-8.9828745E-2,3E0,2.65987E3,2.65987E3,1.0687E2,5.37E1,1E0,2.8569E2,3E0,1E0,1.2E1,1E0,5.129E1,4.6233E2,4E0,3.5331E2,1.4021E2,1E0,1E0,5.4224E2,1E0,1E0,1E0,7.655766E-2,6.9837324E-2,7.7215016E-2,7.9995E2,4E0,1E0,7.582923E-2,-7.944177E-2,9.2663E2,2.09627E3,2.15686E3,1E0,1.81551E3,1.3E1,2.15686E3,6.8238154E-2,9E0,2E0,7.593253E-2,-8.13603E-2,7.266811E-2,-7.049804E-2,-3.6810666E-2,-4.9241055E-2,-6.765316E-2,-6.3468575E-2,-2.9413361E-2,-2.3307366E-2,7.316177E-2,-6.91619E-2,-4.8343357E-2,-7.4632205E-2,-5.5532407E-2,-5.3180076E-2,1.313135E-2,-7.11017E-2,2.5131166E-2,7.28397E-2,3.1906806E-2,-1.9148485E-4,5.2731264E-2,5.8534235E-2,7.292382E-2,1.3971715E-2,4.222198E-2,5.3158622E-2,-8.563192E-2,7.55915E-2,4.5546405E-2,-5.2020747E-2,1.5559728E-2,-4.4523805E-2,7.136461E-2,5.9863616E-2,1.792821E-3,1.8578893E-2,4.846892E-2,1.5409708E-2,8.4878266E-2,5.9547883E-2,2.4141422E-2,6.2986396E-2,4.6642356E-2,5.2801665E-2,6.709134E-2,2.6683679E-2,1.0494617E-3,-7.996372E-2,2.9520912E-2,5.9799787E-2,2.6611328E-2,-2.804279E-3,-3.0467987E-2,3.0601561E-2,-8.25552E-2,-5.492678E-2,1.3017266E-2,-7.978385E-2,1.3916421E-2,-2.456089E-2,4.4054937E-2,7.721131E-2,6.352398E-2],"split_indices":[0,5,2,0,10,0,0,8,4,0,1,3,5,1,0,0,0,0,0,0,0,0,0,5,0,0,0,0,7,1,7,1,3,1,1,0,1,0,0,1,0,4,1,3,0,10,0,0,1,1,0,0,1,0,0,0,0,10,0,1,9,1,9,0,0,1,0,0,0,6,0,7,10,6,0,0,0,0,1,10,0,0,0,0,0,11,0,1,0,0,1,1,0,0,0,0,0,0,0,0,0,0,0,0,0,0,0,0,0,0,0,0,0,0,0,0,0,0,0,0,0,0,0,0,0,0,0,0,0,0,0,0,0,0,0,0,0,0,0,0,0,0,0,0,0,0,0,0,0,0,0,0,0,0,0,0,0],"split_type":[0,0,0,0,0,0,0,0,0,0,0,0,0,0,0,0,0,0,0,0,0,0,0,0,0,0,0,0,0,0,0,0,0,0,0,0,0,0,0,0,0,0,0,0,0,0,0,0,0,0,0,0,0,0,0,0,0,0,0,0,0,0,0,0,0,0,0,0,0,0,0,0,0,0,0,0,0,0,0,0,0,0,0,0,0,0,0,0,0,0,0,0,0,0,0,0,0,0,0,0,0,0,0,0,0,0,0,0,0,0,0,0,0,0,0,0,0,0,0,0,0,0,0,0,0,0,0,0,0,0,0,0,0,0,0,0,0,0,0,0,0,0,0,0,0,0,0,0,0,0,0,0,0,0,0,0,0],"sum_hessian":[2.1967248E4,1.0206319E4,1.176093E4,9.172519E3,1.0338008E3,8.326854E3,3.434076E3,1.3356766E2,9.038951E3,5.0080887E2,5.3299194E2,1.4848975E3,6.841956E3,2.7818853E3,6.5219073E2,1.26968155E2,6.599505E0,4.4688115E3,4.570139E3,2.892351E1,4.7188535E2,2.2143332E2,3.115586E2,1.2390459E3,2.4585165E2,3.448504E3,3.3934521E3,5.7265546E2,2.2092297E3,1.212872E2,5.3090356E2,2.6935193E3,1.7752924E3,4.1382373E3,4.3190182E2,2.5084164E1,4.468012E2,1.3765051E2,8.37828E1,3.0688043E2,4.678158E0,5.398347E2,6.992111E2,2.8752554E2,3.1609785E3,2.1291548E3,1.2642971E3,4.7929172E2,9.3363754E1,1.9798945E3,2.2933514E2,3.9141612E0,1.1737304E2,5.0951553E2,2.1388002E1,8.476697E2,1.8458495E3,1.3198259E3,4.5546643E2,7.1505975E2,3.4231775E3,2.530969E2,1.7880493E2,1.6318538E2,2.836158E2,1.164734E2,2.117712E1,1.4164654E1,2.927158E2,4.1556873E2,1.2426598E2,3.00652E2,3.9855914E2,1.6165646E2,1.2586908E2,1.1408201E2,3.0468965E3,1.0873064E3,1.0418485E3,5.2619305E2,7.3810406E2,6.2000036E0,4.730917E2,1.1601294E1,8.176246E1,1.8357673E3,1.4412718E2,1.08170616E2,1.2116452E2,2.4393633E1,9.29794E1,2.2938304E2,2.801325E2,4.97666E0,1.6411343E1,2.6596075E2,5.817089E2,2.8128928E2,1.5645602E3,7.383097E2,5.8151624E2,1.7782666E2,2.7763977E2,5.187192E2,1.9634056E2,3.3240657E3,9.911191E1,2.272734E2,2.5823488E1,1.6831233E2,1.0492596E1,2.5280987E1,1.3790439E2,2.2832332E2,5.52925E1,5.1024693E1,6.544871E1,7.900981E0,1.3276139E1,7.4290185E0,6.7356353E0,2.292719E1,2.697886E2,2.8343848E2,1.3213026E2,2.7377277E1,9.688871E1,2.897244E2,1.092761E1,1.823735E2,2.1618565E2,1.0900881E2,5.2647644E1,1.0328066E2,9.840257E2,3.07484E2,7.3436456E2,2.4200012E2,2.8419293E2,1.6213567E2,3.1095605E2,3.491469E0,8.109825E0,6.4794174E1,1.6968288E1,1.6642269E3,1.7154051E2,1.3668759E2,7.439586E0,2.9870573E1,7.830004E1,1.1066851E2,1.0496012E1,1.3784063E1,7.919534E1,4.520069E1,1.8418234E2],"tree_param":{"num_deleted":"0","num_feature":"12","num_nodes":"157","size_leaf_vector":"1"}},{"base_weights":[5.4919366E-3,-9.1441303E-1,8.1690437E-1,-1.0880069E0,6.9329715E-1,1.0846645E0,1.6161878E-1,1.3451571E0,-1.1223756E0,3.9183384E-1,9.79322E-1,5.6604886E-1,1.227947E0,-5.683365E-2,1.2480446E0,7.188972E-2,1.0312089E0,-8.5940784E-1,-1.3863312E0,6.193223E-1,4.7989096E-2,1.2057934E0,8.572351E-1,3.4032685E-1,7.476372E-2,1.4900204E0,9.536748E-1,3.8768092E-1,-2.301338E-1,7.4502295E-1,1.3643514E0,-8.360175E-2,1.254588E0,-1.0978633E0,-3.2640097E-1,-1.3967775E0,-1.0305206E0,-7.9872854E-2,7.0005566E-1,2.0878452E-1,-8.870043E-2,8.9207286E-1,7.022724E-2,9.5007455E-1,-6.934463E-1,-2.647505E-1,7.93704E-1,1.3061419E0,7.5115606E-2,7.5186974E-1,1.372001E0,-8.085183E-2,4.1116944E-1,-1.5622126E-1,-6.576915E-1,2.2899072E-1,1.1812967E0,1.1898344E0,7.443556E-2,6.801368E-2,3.880111E-2,-1.1728283E0,-4.1205257E-1,-7.180476E-1,1.4131355E0,-1.4616175E0,-1.3271514E0,-7.592073E-2,-4.1635868E-1,8.114264E-1,-1.2121339E-1,7.389202E-2,6.27927E-2,-4.9395415E-1,1.1833508E0,1.189961E0,8.0190265E-1,8.2715994E-1,-9.47209E-2,-6.4918286E-1,9.602979E-1,5.12868E-1,1.0493897E0,1.1374503E0,7.453409E-2,3.9949796E-1,1.0614846E0,1.1786785E0,7.3948674E-2,3.2821333E-1,8.559919E-1,-9.294824E-2,-8.2450616E-1,-8.554863E-2,-5.319853E-1,9.6104485E-1,-3.6939585E-1,7.26337E-2,1.072609E0,1.1028538E0,7.1849205E-2,-6.6324666E-2,-5.330823E-2,-6.0620207E-2,6.349103E-3,-5.0191294E-2,2.2439529E-4,3.3372223E-2,7.274579E-2,-7.398927E-2,-4.8712634E-2,-6.283866E-2,-6.888693E-2,-5.1141854E-2,4.425992E-2,4.7585934E-2,1.7512148E-2,3.9894637E-2,-9.921404E-2,-8.496675E-2,1.3843829E-2,5.4301746E-2,-1.0339761E-1,4.137264E-2,6.3470565E-2,-6.396075E-2,6.2426116E-2,-9.830747E-2,4.4888478E-2,-4.7366593E-2,6.0876947E-2,-5.813537E-2,2.0496491E-2,-1.3411236E-2,6.5789826E-2,3.54506E-3,4.484238E-2,5.624018E-2,2.356385E-2,3.7545834E-2,7.6364145E-2,4.3984316E-2,6.6569136E-3,6.469538E-2,4.8899483E-2,6.1355855E-2,-1.5260815E-2,4.167014E-2,1.1035885E-2,4.8923012E-2,-8.147307E-2,-8.865229E-4,-2.5349228E-2,-5.8266323E-2,1.2068052E-2,1.6916662E-2,-3.5370328E-2,3.566986E-2,6.995397E-2,-4.5953795E-2,4.276252E-2,5.8336016E-2,-6.200812E-2,6.715134E-2,4.5018412E-2],"categories":[],"categories_nodes":[],"categories_segments":[],"categories_sizes":[],"default_left":[0,0,0,0,0,0,0,0,0,0,0,0,0,0,0,0,0,0,0,0,0,0,0,0,0,0,0,0,0,0,0,0,0,0,0,0,0,0,0,0,0,0,0,0,0,0,0,0,0,0,0,0,0,0,0,0,0,0,0,0,0,0,0,0,0,0,0,0,0,0,0,0,0,0,0,0,0,0,0,0,0,0,0,0,0,0,0,0,0,0,0,0,0,0,0,0,0,0,0,0,0,0,0,0,0,0,0,0,0,0,0,0,0,0,0,0,0,0,0,0,0,0,0,0,0,0,0,0,0,0,0,0,0,0,0,0,0,0,0,0,0,0,0,0,0,0,0,0,0,0,0,0,0,0,0,0,0,0,0,0,0,0,0,0,0],"id":8,"left_children":[1,3,5,7,9,11,13,15,17,19,21,23,25,27,29,-1,31,33,35,37,39,41,43,45,-1,47,49,51,53,55,57,-1,59,61,63,65,67,-1,69,71,-1,73,-1,75,77,79,81,83,-1,85,87,-1,89,91,93,95,97,99,-1,-1,-1,101,103,105,107,109,111,-1,113,115,117,-1,119,121,123,125,127,129,-1,131,133,135,137,139,-1,141,143,145,-1,147,149,151,153,-1,155,157,159,-1,161,163,-1,-1,-1,-1,-1,-1,-1,-1,-1,-1,-1,-1,-1,-1,-1,-1,-1,-1,-1,-1,-1,-1,-1,-1,-1,-1,-1,-1,-1,-1,-1,-1,-1,-1,-1,-1,-1,-1,-1,-1,-1,-1,-1,-1,-1,-1,-1,-1,-1,-1,-1,-1,-1,-1,-1,-1,-1,-1,-1,-1,-1,-1,-1,-1,-1],"loss_changes":[1.6005483E4,2.8054854E3,1.9988887E3,7.60041E2,8.4115906E1,6.0032227E2,7.8473596E2,2.2049103E0,6.196865E2,3.742076E1,1.2851746E1,3.671162E2,4.540381E2,2.122149E2,3.1368286E1,0E0,2.1677681E1,5.694795E2,1.5146484E1,5.2671722E1,5.6538464E1,9.561554E0,4.8132034E1,3.8741254E2,0E0,5.357422E0,2.6058105E2,3.7053658E1,6.2527824E1,2.3628288E1,7.960022E0,0E0,4.881096E-1,1.5874927E2,9.461133E2,1.761914E1,3.8648193E1,0E0,2.5583572E1,3.2712784E1,0E0,2.884748E1,0E0,1.0119659E1,3.6639984E1,2.857032E2,5.741803E1,4.85968E0,0E0,2.2788647E2,1.9086914E1,0E0,2.793454E1,7.1429E1,3.7725082E1,2.2201733E1,1.3142395E-1,2.532959E0,0E0,0E0,0E0,4.4339355E1,1.3248364E2,2.3394452E2,6.981903E0,1.8333496E1,5.744629E0,0E0,4.78038E1,1.5549973E1,6.0047867E1,0E0,6.0770374E1,3.423416E1,7.3049927E-1,1.8499588E1,5.368593E1,7.5063806E0,0E0,2.5139136E2,6.367546E1,6.554499E1,1.7847412E1,1.6065948E1,0E0,1.2527391E2,2.0339722E1,2.6518799E1,0E0,3.4901268E1,3.7988007E1,4.8135735E1,5.3367386E1,0E0,4.0260513E1,1.4652901E0,1.9744968E1,0E0,1.1181339E1,5.89032E0,0E0,0E0,0E0,0E0,0E0,0E0,0E0,0E0,0E0,0E0,0E0,0E0,0E0,0E0,0E0,0E0,0E0,0E0,0E0,0E0,0E0,0E0,0E0,0E0,0E0,0E0,0E0,0E0,0E0,0E0,0E0,0E0,0E0,0E0,0E0,0E0,0E0,0E0,0E0,0E0,0E0,0E0,0E0,0E0,0E0,0E0,0E0,0E0,0E0,0E0,0E0,0E0,0E0,0E0,0E0,0E0,0E0,0E0,0E0,0E0,0E0,0E0,0E0,0E0,0E0],"parents":[2147483647,0,0,1,1,2,2,3,3,4,4,5,5,6,6,7,7,8,8,9,9,10,10,11,11,12,12,13,13,14,14,16,16,17,17,18,18,19,19,20,20,21,21,22,22,23,23,25,25,26,26,27,27,28,28,29,29,30,30,32,32,33,33,34,34,35,35,36,36,38,38,39,39,41,41,43,43,44,44,45,45,46,46,47,47,49,49,50,50,52,52,53,53,54,54,55,55,56,56,57,57,61,61,62,62,63,63,64,64,65,65,66,66,68,68,69,69,70,70,72,72,73,73,74,74,75,75,76,76,77,77,79,79,80,80,81,81,82,82,83,83,85,85,86,86,87,87,89,89,90,90,91,91,92,92,94,94,95,95,96,96,98,98,99,99],"right_children":[2,4,6,8,10,12,14,16,18,20,22,24,26,28,30,-1,32,34,36,38,40,42,44,46,-1,48,50,52,54,56,58,-1,60,62,64,66,68,-1,70,72,-1,74,-1,76,78,80,82,84,-1,86,88,-1,90,92,94,96,98,100,-1,-1,-1,102,104,106,108,110,112,-1,114,116,118,-1,120,122,124,126,128,130,-1,132,134,136,138,140,-1,142,144,146,-1,148,150,152,154,-1,156,158,160,-1,162,164,-1,-1,-1,-1,-1,-1,-1,-1,-1,-1,-1,-1,-1,-1,-1,-1,-1,-1,-1,-1,-1,-1,-1,-1,-1,-1,-1,-1,-1,-1,-1,-1,-1,-1,-1,-1,-1,-1,-1,-1,-1,-1,-1,-1,-1,-1,-1,-1,-1,-1,-1,-1,-1,-1,-1,-1,-1,-1,-1,-1,-1,-1,-1,-1,-1],"split_conditions":[4.9634E2,1E0,1E0,1E0,1E0,8.2364E2,2.23758E3,1E0,1E0,1.2E1,6E0,1E0,1E0,5E0,2.354E3,7.188972E-2,8E0,2.8835E2,1E0,1.179E1,1E0,4E0,4.2865E2,1E0,7.476372E-2,9.2663E2,1.77934E3,5.4224E2,1E0,1.4E1,2.65987E3,-8.360175E-2,1.9E1,1E0,1E0,1E0,2.908E2,-7.9872854E-2,1E0,1E0,-8.870043E-2,2.829E2,7.022724E-2,1.3045E2,9E0,1E0,1E0,1E0,7.5115606E-2,1E0,2.04343E3,-8.085183E-2,1.98826E3,1E0,7.4087E2,3E0,1.5E1,2.2E1,7.443556E-2,6.801368E-2,3.880111E-2,1.3433E2,1.4996E2,1E0,2.9941E2,4.4818E2,1E1,-7.592073E-2,1.9E1,1E0,2.0563E2,7.389202E-2,6.952E1,2.094E1,3.6492E2,1E1,1.7011E2,8E0,-9.47209E-2,1E0,5.2889E2,6.8582E2,7.5938E2,1E0,7.453409E-2,6E0,3E0,1E0,7.3948674E-2,7.2194E2,1E0,1E0,1.81551E3,-8.554863E-2,8.9931E2,1E0,1E0,7.26337E-2,1E0,6E0,7.1849205E-2,-6.6324666E-2,-5.330823E-2,-6.0620207E-2,6.349103E-3,-5.0191294E-2,2.2439529E-4,3.3372223E-2,7.274579E-2,-7.398927E-2,-4.8712634E-2,-6.283866E-2,-6.888693E-2,-5.1141854E-2,4.425992E-2,4.7585934E-2,1.7512148E-2,3.9894637E-2,-9.921404E-2,-8.496675E-2,1.3843829E-2,5.4301746E-2,-1.0339761E-1,4.137264E-2,6.3470565E-2,-6.396075E-2,6.2426116E-2,-9.830747E-2,4.4888478E-2,-4.7366593E-2,6.0876947E-2,-5.813537E-2,2.0496491E-2,-1.3411236E-2,6.5789826E-2,3.54506E-3,4.484238E-2,5.624018E-2,2.356385E-2,3.7545834E-2,7.6364145E-2,4.3984316E-2,6.6569136E-3,6.469538E-2,4.8899483E-2,6.1355855E-2,-1.5260815E-2,4.167014E-2,1.1035885E-2,4.8923012E-2,-8.147307E-2,-8.865229E-4,-2.5349228E-2,-5.8266323E-2,1.2068052E-2,1.6916662E-2,-3.5370328E-2,3.566986E-2,6.995397E-2,-4.5953795E-2,4.276252E-2,5.8336016E-2,-6.200812E-2,6.715134E-2,4.5018412E-2],"split_indices":[0,5,2,0,10,0,0,4,4,1,1,3,5,1,0,0,1,0,9,0,7,1,0,5,0,0,0,0,8,1,0,0,1,2,3,10,0,0,9,0,0,0,0,0,1,4,10,3,0,10,0,0,0,11,0,1,1,1,0,0,0,0,0,2,0,0,1,0,1,8,0,0,0,0,0,1,0,1,0,6,0,0,0,6,0,1,1,9,0,0,8,7,0,0,0,11,7,0,7,1,0,0,0,0,0,0,0,0,0,0,0,0,0,0,0,0,0,0,0,0,0,0,0,0,0,0,0,0,0,0,0,0,0,0,0,0,0,0,0,0,0,0,0,0,0,0,0,0,0,0,0,0,0,0,0,0,0,0,0,0,0,0,0,0,0],"split_type":[0,0,0,0,0,0,0,0,0,0,0,0,0,0,0,0,0,0,0,0,0,0,0,0,0,0,0,0,0,0,0,0,0,0,0,0,0,0,0,0,0,0,0,0,0,0,0,0,0,0,0,0,0,0,0,0,0,0,0,0,0,0,0,0,0,0,0,0,0,0,0,0,0,0,0,0,0,0,0,0,0,0,0,0,0,0,0,0,0,0,0,0,0,0,0,0,0,0,0,0,0,0,0,0,0,0,0,0,0,0,0,0,0,0,0,0,0,0,0,0,0,0,0,0,0,0,0,0,0,0,0,0,0,0,0,0,0,0,0,0,0,0,0,0,0,0,0,0,0,0,0,0,0,0,0,0,0,0,0,0,0,0,0,0,0],"sum_hessian":[2.1440932E4,1.0048611E4,1.139232E4,9.069634E3,9.7897797E2,8.0871333E3,3.3051868E3,1.2579427E2,8.943839E3,4.7777966E2,5.011983E2,1.7517101E3,6.3354233E3,2.7526475E3,5.525393E2,9.4368965E1,3.1425312E1,4.482435E3,4.4614043E3,2.8705936E2,1.9072029E2,1.7244193E2,3.2875638E2,1.4104565E3,3.4125357E2,3.2374917E3,3.0979314E3,7.717845E2,1.9808629E3,1.0515492E2,4.4738437E2,1.9035938E0,2.9521719E1,3.0962026E3,1.3862322E3,4.331315E3,1.3008936E2,9.426952E0,2.7763242E2,1.7606735E2,1.4652935E1,6.90065E1,1.03435425E2,3.1055096E2,1.82054E1,6.043315E2,8.0612506E2,2.095752E2,3.0279165E3,2.0916802E3,1.0062514E3,8.152295E0,7.636322E2,1.6900642E3,2.907986E2,4.8872524E1,5.6282402E1,1.9054942E2,2.5683493E2,2.2672394E1,6.8493247E0,2.7904702E3,3.0573248E2,1.1319641E3,2.5426802E2,2.2323896E3,2.0989253E3,7.167664E1,5.8412712E1,2.4448962E2,3.3142784E1,1.7223833E1,1.5884352E2,1.186272E1,5.714378E1,1.1589273E2,1.9465825E2,8.170988E0,1.0034411E1,4.6034174E2,1.4398973E2,3.856009E2,4.205242E2,1.1323164E2,9.634355E1,9.793616E2,1.1123185E3,3.6273294E2,6.435185E2,6.4506934E2,1.1856284E2,1.5449298E3,1.451344E2,2.9660982E1,2.6113763E2,2.17086E1,2.7163923E1,1.2558969E1,4.372343E1,1.4498611E2,4.5563313E1,1.1386453E3,1.651825E3,1.2253899E2,1.8319351E2,8.108617E2,3.2110245E2,1.4391184E1,2.3987683E2,2.1501985E3,8.219117E1,8.8856903E2,1.2103562E3,3.9992023E1,1.8420687E1,1.8664764E2,5.7841972E1,2.2576742E1,1.0566042E1,1.6456024E1,1.423875E2,6.0748057E0,5.7879133E0,1.3194288E1,4.394949E1,2.2020376E0,1.136907E2,5.862946E0,1.887953E2,1.21616E0,6.9548283E0,3.0995715E2,1.5038458E2,3.237041E1,1.11619316E2,1.7981526E2,2.0578563E2,3.711612E2,4.9363007E1,5.832572E1,5.4905922E1,3.486033E2,6.3075824E2,2.9014655E2,8.22172E2,3.5143417E2,1.129877E1,1.1199265E2,5.330767E2,1.1357297E2,4.9898715E0,1.3082953E3,2.3663458E2,1.09899704E2,3.5234703E1,4.364966E1,2.1748798E2,1.55473585E1,6.1612406E0,1.8920855E1,8.243071E0,4.248996E1,1.2334721E0,6.3744526E1,8.1241585E1],"tree_param":{"num_deleted":"0","num_feature":"12","num_nodes":"165","size_leaf_vector":"1"}},{"base_weights":[2.84867E-2,-8.6784923E-1,7.9555076E-1,-1.0483152E0,6.9288266E-1,1.0692436E0,1.0895258E-1,-7.78097E-1,-1.3198272E0,3.7478054E-1,9.705657E-1,6.072852E-1,1.2047253E0,-1.4868528E-1,1.2230216E0,-1.0344067E0,-3.004171E-1,6.1234046E-2,-1.3441994E0,-2.0583725E-1,4.867278E-1,1.2121319E0,8.2786334E-1,4.0187168E-1,7.2997056E-2,1.4576205E0,9.4317436E-1,3.5938025E-1,-2.2059108E-1,1.017281E0,7.288843E-2,6.805721E-2,-1.0898815E0,-6.622722E-1,1.1203631E0,-1.3641378E0,-8.7540627E-1,-6.885782E-1,9.5871264E-1,9.17935E-1,2.651796E-1,1.0276767E0,6.2933326E-2,-4.2048687E-1,8.888939E-1,-1.755272E-1,8.4390116E-1,1.2618514E0,7.317454E-2,7.071856E-1,1.317089E0,5.139266E-1,-1.9814497E-1,-2.783301E-1,5.8186406E-1,1.0809879E0,-3.6739537E-1,-1.140275E0,-5.790385E-1,-9.236186E-1,2.8132772E-2,-2.762321E-1,1.3922529E0,-1.3757106E0,-1.0000702E0,-2.380493E-2,-1.0492922E0,-1.3067521E0,9.6175206E-1,1.1672311E0,-6.297643E-2,9.824507E-1,-7.343274E-2,-7.694722E-2,6.163437E-1,1.1571772E0,-7.3169775E-2,6.2105764E-2,-8.5700475E-2,9.169416E-1,-6.5354995E-2,-4.858865E-1,8.601709E-1,5.9701335E-1,1.0684831E0,1.0809656E0,7.212209E-2,4.5635945E-1,9.5217144E-1,1.136594E0,7.203139E-2,-7.175921E-2,5.601672E-1,-1.3464181E0,8.878261E-1,-9.518917E-2,-4.0643868E-1,7.85831E-1,-2.5351134E-1,9.840045E-1,1.3411433E0,5.6373447E-2,-8.6416714E-2,-5.898226E-2,-3.5124596E-2,-7.402011E-2,-1.12563E-2,-4.0571317E-2,-7.8516E-2,9.001913E-3,-5.673311E-2,-7.928716E-2,2.0591589E-2,6.0030844E-2,7.346101E-2,-7.209512E-2,-6.5268464E-2,-7.3998354E-2,-1.6959904E-2,6.521656E-2,-7.412959E-2,-5.846196E-2,3.4530785E-2,7.0086606E-3,-9.040015E-2,1.9445935E-2,8.1625335E-2,7.460938E-2,2.51758E-2,4.359897E-2,7.973655E-2,-9.042843E-2,9.777177E-3,6.2474467E-2,5.3278306E-3,3.7447955E-2,6.1069973E-2,6.337216E-2,3.9742038E-2,-4.214145E-2,1.5354389E-2,-4.5255672E-2,6.7056835E-2,5.2972406E-2,2.4635818E-2,6.3609175E-2,4.731443E-2,3.6632165E-2,7.599416E-2,3.917416E-2,1.440593E-2,5.8520854E-2,4.3278098E-2,4.9340457E-2,6.369512E-2,2.5291255E-2,7.327806E-2,-2.3975836E-2,-9.804913E-2,4.9637005E-2,-6.216977E-2,-7.7310437E-3,1.5751664E-2,-1.806193E-2,-4.4387463E-2,4.511729E-2,-7.764136E-3,-8.490624E-2,4.5192044E-2,5.6860108E-2,1.9834287E-2,6.875676E-2,4.010007E-2],"categories":[],"categories_nodes":[],"categories_segments":[],"categories_sizes":[],"default_left":[0,0,0,0,0,0,0,0,0,0,0,0,0,0,0,0,0,0,0,0,0,0,0,0,0,0,0,0,0,0,0,0,0,0,0,0,0,0,0,0,0,0,0,0,0,0,0,0,0,0,0,0,0,0,0,0,0,0,0,0,0,0,0,0,0,0,0,0,0,0,0,0,0,0,0,0,0,0,0,0,0,0,0,0,0,0,0,0,0,0,0,0,0,0,0,0,0,0,0,0,0,0,0,0,0,0,0,0,0,0,0,0,0,0,0,0,0,0,0,0,0,0,0,0,0,0,0,0,0,0,0,0,0,0,0,0,0,0,0,0,0,0,0,0,0,0,0,0,0,0,0,0,0,0,0,0,0,0,0,0,0,0,0,0,0,0,0,0,0,0,0,0,0],"id":9,"left_children":[1,3,5,7,9,11,13,15,17,19,21,23,25,27,29,31,33,-1,35,37,39,41,43,45,-1,47,49,51,53,55,-1,-1,57,59,61,63,65,67,69,71,73,75,-1,77,79,81,83,85,-1,87,89,91,93,95,97,99,101,103,105,107,109,111,113,115,117,119,121,123,125,127,-1,129,-1,131,133,135,-1,-1,-1,137,-1,139,141,143,145,147,-1,149,151,153,-1,-1,155,157,159,161,163,165,167,169,171,-1,-1,-1,-1,-1,-1,-1,-1,-1,-1,-1,-1,-1,-1,-1,-1,-1,-1,-1,-1,-1,-1,-1,-1,-1,-1,-1,-1,-1,-1,-1,-1,-1,-1,-1,-1,-1,-1,-1,-1,-1,-1,-1,-1,-1,-1,-1,-1,-1,-1,-1,-1,-1,-1,-1,-1,-1,-1,-1,-1,-1,-1,-1,-1,-1,-1,-1,-1,-1,-1,-1,-1],"loss_changes":[1.4782155E4,2.7932349E3,2.1769639E3,6.510127E2,9.045773E1,5.1769336E2,9.482452E2,5.453413E2,2.7647168E2,3.1354485E1,1.7898987E1,3.2876337E2,4.2220898E2,9.811724E1,2.8485107E1,3.8687476E2,8.015786E2,0E0,3.9839844E1,4.4750168E1,3.8296425E1,4.359131E-1,2.6876602E1,3.8726056E2,0E0,1.8930664E0,2.7710205E2,2.8802212E1,1.0911223E2,2.9859375E1,0E0,0E0,7.231958E1,2.2414935E2,1.20591064E2,1.6358398E1,2.6909363E1,5.8414158E1,1.2294291E1,2.2462563E1,3.2233948E1,1.6545158E1,0E0,3.845901E1,2.1645447E1,2.120828E2,4.700415E1,1.7724457E0,0E0,1.1840039E2,2.5521729E1,2.4334267E1,9.224478E1,5.1443848E1,2.7148167E1,6.7428284E0,3.335341E1,4.3627686E1,8.151679E1,6.410315E1,6.062279E1,4.788564E1,2.1468506E0,1.7100098E1,4.178624E1,6.3671223E1,3.2325623E1,3.0122215E1,5.4525805E0,3.9740734E0,0E0,7.6407623E0,0E0,6.4802055E1,4.2574486E1,2.4719238E-1,0E0,0E0,0E0,1.3045776E1,0E0,1.438491E2,1.3042865E2,1.9327866E1,9.964294E0,7.286621E0,0E0,5.2469254E1,1.7462097E1,9.019165E0,0E0,0E0,1.1841629E1,1.8179054E1,9.759657E0,2.209985E1,2.776175E1,1.4106361E1,5.469316E1,2.0830887E1,4.3695068E-1,0E0,0E0,0E0,0E0,0E0,0E0,0E0,0E0,0E0,0E0,0E0,0E0,0E0,0E0,0E0,0E0,0E0,0E0,0E0,0E0,0E0,0E0,0E0,0E0,0E0,0E0,0E0,0E0,0E0,0E0,0E0,0E0,0E0,0E0,0E0,0E0,0E0,0E0,0E0,0E0,0E0,0E0,0E0,0E0,0E0,0E0,0E0,0E0,0E0,0E0,0E0,0E0,0E0,0E0,0E0,0E0,0E0,0E0,0E0,0E0,0E0,0E0,0E0,0E0,0E0,0E0,0E0,0E0,0E0,0E0,0E0,0E0],"parents":[2147483647,0,0,1,1,2,2,3,3,4,4,5,5,6,6,7,7,8,8,9,9,10,10,11,11,12,12,13,13,14,14,15,15,16,16,18,18,19,19,20,20,21,21,22,22,23,23,25,25,26,26,27,27,28,28,29,29,32,32,33,33,34,34,35,35,36,36,37,37,38,38,39,39,40,40,41,41,43,43,44,44,45,45,46,46,47,47,49,49,50,50,51,51,52,52,53,53,54,54,55,55,56,56,57,57,58,58,59,59,60,60,61,61,62,62,63,63,64,64,65,65,66,66,67,67,68,68,69,69,71,71,73,73,74,74,75,75,79,79,81,81,82,82,83,83,84,84,85,85,87,87,88,88,89,89,92,92,93,93,94,94,95,95,96,96,97,97,98,98,99,99,100,100],"right_children":[2,4,6,8,10,12,14,16,18,20,22,24,26,28,30,32,34,-1,36,38,40,42,44,46,-1,48,50,52,54,56,-1,-1,58,60,62,64,66,68,70,72,74,76,-1,78,80,82,84,86,-1,88,90,92,94,96,98,100,102,104,106,108,110,112,114,116,118,120,122,124,126,128,-1,130,-1,132,134,136,-1,-1,-1,138,-1,140,142,144,146,148,-1,150,152,154,-1,-1,156,158,160,162,164,166,168,170,172,-1,-1,-1,-1,-1,-1,-1,-1,-1,-1,-1,-1,-1,-1,-1,-1,-1,-1,-1,-1,-1,-1,-1,-1,-1,-1,-1,-1,-1,-1,-1,-1,-1,-1,-1,-1,-1,-1,-1,-1,-1,-1,-1,-1,-1,-1,-1,-1,-1,-1,-1,-1,-1,-1,-1,-1,-1,-1,-1,-1,-1,-1,-1,-1,-1,-1,-1,-1,-1,-1,-1,-1],"split_conditions":[4.8772E2,1E0,1E0,1E0,1E0,8.2364E2,2.23758E3,2.6474E2,1E0,1.1264E2,6E0,1E0,1E0,2E0,2.65987E3,1E0,1E0,6.1234046E-2,4.4402E2,1E0,5E0,2.0177E2,8E0,1E0,7.2997056E-2,8.732E2,1.71347E3,1.65006E3,2.3E1,1E0,7.288843E-2,6.805721E-2,1E0,1E0,2.8835E2,1E0,3E0,2.2E1,4.883E1,4.4402E2,1.7E1,1.5182E2,6.2933326E-2,1.4021E2,4.5311E2,1E0,1E0,1E0,7.317454E-2,1E0,1.98826E3,5.4224E2,2.04343E3,1E1,1.59155E3,2E1,2E0,2.442E2,8.025E1,1E0,1E0,1E0,3.3895E2,1E0,2.908E2,4.5311E2,1E0,2E0,7.158E1,1.2E1,-6.297643E-2,4.3208E2,-7.343274E-2,2.1364E2,2.0378E2,2E0,-7.3169775E-2,6.2105764E-2,-8.5700475E-2,1.1E1,-6.5354995E-2,1E0,5.2889E2,3E0,6E0,1E0,7.212209E-2,6E0,4E0,1E0,7.203139E-2,-7.175921E-2,1.62042E3,1.77934E3,1E0,1.98826E3,1E0,1E0,2.04343E3,1.2E1,1E0,5.6373447E-2,-8.6416714E-2,-5.898226E-2,-3.5124596E-2,-7.402011E-2,-1.12563E-2,-4.0571317E-2,-7.8516E-2,9.001913E-3,-5.673311E-2,-7.928716E-2,2.0591589E-2,6.0030844E-2,7.346101E-2,-7.209512E-2,-6.5268464E-2,-7.3998354E-2,-1.6959904E-2,6.521656E-2,-7.412959E-2,-5.846196E-2,3.4530785E-2,7.0086606E-3,-9.040015E-2,1.9445935E-2,8.1625335E-2,7.460938E-2,2.51758E-2,4.359897E-2,7.973655E-2,-9.042843E-2,9.777177E-3,6.2474467E-2,5.3278306E-3,3.7447955E-2,6.1069973E-2,6.337216E-2,3.9742038E-2,-4.214145E-2,1.5354389E-2,-4.5255672E-2,6.7056835E-2,5.2972406E-2,2.4635818E-2,6.3609175E-2,4.731443E-2,3.6632165E-2,7.599416E-2,3.917416E-2,1.440593E-2,5.8520854E-2,4.3278098E-2,4.9340457E-2,6.369512E-2,2.5291255E-2,7.327806E-2,-2.3975836E-2,-9.804913E-2,4.9637005E-2,-6.216977E-2,-7.7310437E-3,1.5751664E-2,-1.806193E-2,-4.4387463E-2,4.511729E-2,-7.764136E-3,-8.490624E-2,4.5192044E-2,5.6860108E-2,1.9834287E-2,6.875676E-2,4.010007E-2],"split_indices":[0,5,2,4,10,0,0,0,0,0,1,3,5,1,0,0,3,0,0,11,1,0,1,5,0,0,0,0,1,7,0,0,2,2,0,9,1,1,0,0,1,0,0,0,0,4,10,3,0,10,0,0,0,1,0,1,1,0,0,8,8,10,0,10,0,0,9,1,0,1,0,0,0,0,0,1,0,0,0,1,0,6,0,1,1,6,0,1,1,10,0,0,0,0,7,0,11,8,0,1,8,0,0,0,0,0,0,0,0,0,0,0,0,0,0,0,0,0,0,0,0,0,0,0,0,0,0,0,0,0,0,0,0,0,0,0,0,0,0,0,0,0,0,0,0,0,0,0,0,0,0,0,0,0,0,0,0,0,0,0,0,0,0,0,0,0,0,0,0,0,0,0,0],"split_type":[0,0,0,0,0,0,0,0,0,0,0,0,0,0,0,0,0,0,0,0,0,0,0,0,0,0,0,0,0,0,0,0,0,0,0,0,0,0,0,0,0,0,0,0,0,0,0,0,0,0,0,0,0,0,0,0,0,0,0,0,0,0,0,0,0,0,0,0,0,0,0,0,0,0,0,0,0,0,0,0,0,0,0,0,0,0,0,0,0,0,0,0,0,0,0,0,0,0,0,0,0,0,0,0,0,0,0,0,0,0,0,0,0,0,0,0,0,0,0,0,0,0,0,0,0,0,0,0,0,0,0,0,0,0,0,0,0,0,0,0,0,0,0,0,0,0,0,0,0,0,0,0,0,0,0,0,0,0,0,0,0,0,0,0,0,0,0,0,0,0,0,0,0],"sum_hessian":[2.1497838E4,9.913502E3,1.1584337E4,8.886314E3,1.0271876E3,8.282284E3,3.3020527E3,4.4557065E3,4.4306074E3,4.7984586E2,5.4734174E2,1.8794207E3,6.4028633E3,2.6825557E3,6.194971E2,2.8990122E3,1.5566947E3,4.1567913E1,4.3890396E3,7.7427444E1,4.024184E2,2.004783E2,3.4686343E2,1.5157357E3,3.6368494E2,3.2529722E3,3.149891E3,3.3209198E2,2.3504636E3,3.3298807E2,2.8650903E2,6.5081604E1,2.8339304E3,1.2411285E3,3.1556616E2,4.208151E3,1.8088863E2,5.502616E1,2.2401283E1,1.3551582E2,2.669026E2,4.5038345E1,1.5543996E2,1.5892862E1,3.3097058E2,6.574924E2,8.5824335E2,1.0099115E2,3.151981E3,1.9328821E3,1.2170089E3,2.6007672E2,7.201525E1,2.1933022E3,1.571614E2,3.1855133E2,1.4436728E1,2.5783503E3,2.5558017E2,9.0007544E2,3.4105304E2,5.1420815E1,2.6414536E2,4.0758127E3,1.3233806E2,3.0865013E1,1.5002362E2,4.018283E1,1.4843331E1,2.0909552E1,1.49173E0,1.3252176E2,2.9940605E0,1.355864E2,1.313162E2,4.3321697E1,1.7166462E0,6.971689E0,8.921173E0,3.2737177E2,3.598814E0,5.063034E2,1.5118901E2,4.10562E2,4.4768134E2,5.3944317E1,4.704683E1,9.564716E2,9.7641046E2,4.9865555E2,7.183534E2,5.330969E0,2.5474576E2,3.488698E1,3.7128273E1,9.0346857E2,1.2898337E3,1.2636676E2,3.0794651E1,2.3553029E2,8.3021034E1,6.961605E0,7.475123E0,2.364055E3,2.142955E2,7.116085E1,1.8441931E2,7.6893274E2,1.3114276E2,3.0239398E2,3.865905E1,1.7262495E1,3.415832E1,8.0446266E1,1.8369908E2,2.0897969E3,1.9860159E3,7.594827E1,5.6389782E1,1.6211401E1,1.4653611E1,1.4065503E2,9.368588E0,1.0524077E1,2.9658754E1,8.858165E0,5.9851665E0,1.31990385E1,7.710514E0,1.14319664E2,1.8202097E1,1.7668653E1,1.1791774E2,5.7924313E1,7.339188E1,7.6102667E0,3.571143E1,8.21558E1,2.4521596E2,3.4909982E2,1.5720357E2,3.2183678E1,1.19005325E2,7.387135E1,3.3669067E2,1.6432973E2,2.8335162E2,3.1564283E1,2.2380032E1,3.236048E2,6.328668E2,2.7384363E2,7.0256683E2,2.4240793E2,2.5624762E2,2.41792E2,1.2953764E1,1.5210863E1,1.9676117E1,3.589543E1,1.2328382E0,7.896847E2,1.1378389E2,1.1807039E3,1.0912987E2,1.1248208E2,1.388468E1,1.3489604E1,1.7305048E1,1.8606133E2,4.9468964E1,7.663851E1,6.3825226E0],"tree_param":{"num_deleted":"0","num_feature":"12","num_nodes":"173","size_leaf_vector":"1"}},{"base_weights":[2.7942238E-2,-8.0335635E-1,7.9175806E-1,-9.9843293E-1,7.337019E-1,1.0592508E0,1.6634592E-1,6.665837E-2,-1.034199E0,1.0074726E0,5.650254E-1,8.6457384E-1,1.3071973E0,-4.9301274E-2,1.1887299E0,-7.72476E-1,-1.3107183E0,7.598787E-1,1.2345768E0,7.348978E-2,4.763883E-1,7.140036E-1,7.146957E-2,7.155927E-2,1.1512825E0,1.4317107E-1,-1.6745213E-1,6.159458E-1,1.3164123E0,-1.0697587E0,-3.8263658E-1,-1.3313195E0,-7.140013E-1,-1.1339475E-2,8.415783E-1,1.0364307E0,1.3196037E0,-8.0521114E-2,5.581333E-1,6.417906E-1,1.3950546E0,9.303165E-1,1.3714813E0,8.201966E-2,5.474084E-1,-7.1014154E-1,-7.042531E-2,7.0512676E-1,-7.307496E-2,1.1967505E0,7.079106E-2,-8.9408284E-1,-1.1470618E0,-8.2218117E-1,7.9843056E-1,-1.3356036E0,-2.2978808E-1,-1.1520236E0,-1.8477349E-1,-1.00231886E-1,1.032401E0,4.0822363E-1,9.3542373E-1,1.2233931E0,-9.973984E-2,9.465632E-1,6.8215124E-2,6.615269E-1,-2.520703E-1,5.57415E-1,1.355066E0,9.0622056E-1,7.186695E-2,6.841069E-1,1.1452937E0,1.1576058E0,7.0218E-2,1.548918E-1,-5.140224E-1,6.289799E-1,-8.028169E-2,-5.570264E-1,-8.589168E-2,2.5667626E-1,-1.7131312E-1,1.123394E0,5.4915196E-1,1.2223123E0,8.8621175E-1,-5.700512E-2,-2.90828E-2,-5.9355557E-2,-3.530347E-2,-1.9453945E-2,-6.2758766E-2,-1.9086963E-2,6.8904914E-2,-7.005017E-2,-6.329162E-2,-7.5958684E-2,7.932373E-2,-5.8386545E-3,-7.1788825E-2,2.9921094E-2,-4.6886496E-2,3.0441541E-2,6.904301E-2,4.220873E-2,-9.594398E-2,6.92269E-2,3.578187E-2,6.310578E-2,3.8125664E-2,5.8972068E-2,-7.477521E-2,4.9578384E-2,2.6254013E-2,-9.3546085E-2,9.3327975E-3,-8.252236E-3,3.4586396E-2,-2.1945622E-3,7.6256625E-2,1.8866738E-2,5.611382E-2,6.403934E-2,2.7052363E-2,5.481956E-2,6.783021E-2,6.028918E-2,-6.6264056E-2,1.891701E-2,3.0947323E-3,-3.8191456E-2,3.5903778E-2,2.5502825E-2,5.7025056E-2,-1.6269494E-2,-6.733652E-2,1.7926365E-2,-8.213418E-2,-1.28058335E-2,1.9385932E-2,3.412738E-2,6.2937275E-2,-7.648973E-2,3.2264505E-2,6.7251295E-2,5.7509046E-2,2.3345856E-2,5.4786604E-2],"categories":[],"categories_nodes":[],"categories_segments":[],"categories_sizes":[],"default_left":[0,0,0,0,0,0,0,0,0,0,0,0,0,0,0,0,0,0,0,0,0,0,0,0,0,0,0,0,0,0,0,0,0,0,0,0,0,0,0,0,0,0,0,0,0,0,0,0,0,0,0,0,0,0,0,0,0,0,0,0,0,0,0,0,0,0,0,0,0,0,0,0,0,0,0,0,0,0,0,0,0,0,0,0,0,0,0,0,0,0,0,0,0,0,0,0,0,0,0,0,0,0,0,0,0,0,0,0,0,0,0,0,0,0,0,0,0,0,0,0,0,0,0,0,0,0,0,0,0,0,0,0,0,0,0,0,0,0,0,0,0,0,0,0,0,0,0,0,0,0,0],"id":10,"left_children":[1,3,5,7,9,11,13,-1,15,17,19,21,23,25,27,29,31,33,35,-1,37,39,-1,-1,41,43,45,47,49,51,53,55,57,59,61,63,65,-1,67,69,71,73,75,77,79,81,83,85,-1,87,-1,89,91,93,95,97,99,101,103,-1,105,107,109,111,-1,113,-1,115,117,119,121,123,-1,125,127,129,-1,131,133,135,-1,137,-1,139,141,143,145,147,149,-1,-1,-1,-1,-1,-1,-1,-1,-1,-1,-1,-1,-1,-1,-1,-1,-1,-1,-1,-1,-1,-1,-1,-1,-1,-1,-1,-1,-1,-1,-1,-1,-1,-1,-1,-1,-1,-1,-1,-1,-1,-1,-1,-1,-1,-1,-1,-1,-1,-1,-1,-1,-1,-1,-1,-1,-1,-1,-1,-1,-1,-1],"loss_changes":[1.3359601E4,3.021663E3,1.8342095E3,7.469678E2,5.185492E1,3.6958105E2,7.2455084E2,0E0,6.363096E2,2.3325989E1,5.5816193E1,3.651067E2,6.361377E1,6.175695E1,4.105316E1,5.2418945E2,5.1671387E1,1.3181213E1,2.3972778E0,0E0,1.10641464E2,1.6636804E2,0E0,0E0,7.173486E1,2.5492968E1,8.854486E1,2.0710148E1,3.8631592E0,3.3843506E1,1.0181471E3,1.9214355E1,3.3402473E1,4.57826E1,7.3059235E0,4.310898E1,1.2549744E0,0E0,5.2088867E1,1.8441626E2,5.4191895E0,3.9023254E1,3.6444092E0,3.9107014E1,2.4819904E1,3.840071E1,4.7183846E1,6.0716896E0,0E0,6.5097046E-1,0E0,5.9991516E1,3.0590088E1,2.674721E2,3.6453738E2,1.702832E1,4.276975E1,2.3083328E1,3.998893E1,0E0,1.2920914E0,3.75577E1,1.4270767E1,2.5494385E-1,0E0,1.2913967E1,0E0,2.4245163E1,5.0683525E1,2.672572E2,7.733392E1,2.84416E0,0E0,2.9443954E1,2.6463013E0,1.4224289E1,0E0,1.6629911E1,3.0747849E1,7.408001E0,0E0,4.03387E1,0E0,6.5806046E1,5.1884502E1,